svm_type c_svc
kernel_type rbf
gamma 0.2
nr_class 2
total_sv 243
rho 0.3006993006993007
label 1 0
nr_sv 100 143
SV
1.0 -649:-778.0 -217:-346.0 1:1.0 1:1.0 4:5.0 
1.0 -1288:-1545.0 -429:-686.0 1:1.0 1:1.0 5:1.0 
1.0 -1919:-2302.0 -640:-1023.0 1:1.0 1:1.0 2:0.0 
1.0 157:-997.0 -1064:-2218.0 0:1.0 1:1.0 2:0.0 
1.0 -506:-1792.0 -865:-2151.0 1:1.0 1:1.0 1:0.0 
1.0 -744:-2269.0 -284:-1809.0 1:1.0 1:1.0 3:3.0 
1.0 -1410:-3068.0 -507:-2165.0 1:1.0 1:1.0 2:3.0 
1.0 -627:-1759.0 -663:-1795.0 1:1.0 1:1.0 1:1.0 
1.0 1111:68.0 683:-360.0 0:0.0 0:1.0 4:2.0 
1.0 -1313:-2221.0 5:-903.0 1:1.0 0:1.0 5:0.0 
1.0 185:-233.0 -675:-1093.0 0:1.0 1:1.0 0:4.0 
1.0 -1221:-1587.0 -275:-641.0 1:1.0 1:1.0 5:4.0 
1.0 389:236.0 406:253.0 0:0.0 0:0.0 4:0.0 
1.0 404:248.0 -42:-198.0 0:0.0 1:1.0 1:0.0 
1.0 -1171:-1545.0 -262:-636.0 1:1.0 1:1.0 4:5.0 
1.0 -487:-558.0 -463:-534.0 1:1.0 1:1.0 4:3.0 
1.0 -1190:-1489.0 -240:-539.0 1:1.0 1:1.0 2:2.0 
1.0 425:352.0 -22:-95.0 0:0.0 1:1.0 3:0.0 
1.0 -1243:-1551.0 -279:-587.0 1:1.0 1:1.0 4:5.0 
1.0 378:295.0 419:336.0 0:0.0 0:0.0 1:3.0 
1.0 400:310.0 -516:-606.0 0:0.0 1:1.0 0:5.0 
1.0 492:492.0 454:454.0 0:0.0 0:0.0 2:5.0 
1.0 491:500.0 -484:-475.0 0:0.0 1:1.0 4:0.0 
1.0 1173:1335.0 249:411.0 0:0.0 0:0.0 3:0.0 
1.0 182:352.0 -247:-77.0 0:0.0 1:1.0 4:1.0 
1.0 177:356.0 -296:-117.0 0:0.0 1:1.0 4:1.0 
1.0 -734:-562.0 -726:-554.0 1:1.0 1:1.0 0:3.0 
1.0 1212:1302.0 240:330.0 0:0.0 0:0.0 3:0.0 
1.0 233:329.0 -249:-153.0 0:0.0 1:1.0 1:3.0 
1.0 -1478:-1620.0 -8:-150.0 1:1.0 1:1.0 3:4.0 
1.0 268:387.0 -731:-612.0 0:0.0 1:1.0 3:5.0 
1.0 984:1254.0 504:774.0 0:0.0 0:0.0 2:4.0 
1.0 8:283.0 -470:-195.0 0:0.0 1:1.0 4:4.0 
1.0 -798:-851.0 -274:-327.0 1:1.0 1:1.0 5:2.0 
1.0 933:1117.0 455:639.0 0:0.0 0:0.0 2:0.0 
1.0 -1507:-1725.0 -33:-251.0 1:1.0 1:1.0 5:3.0 
1.0 983:1143.0 -498:-338.0 0:0.0 1:1.0 1:2.0 
1.0 -225:91.0 255:571.0 1:0.0 0:0.0 4:1.0 
1.0 -1719:-1888.0 -241:-410.0 1:1.0 1:1.0 3:0.0 
1.0 3:184.0 -982:-801.0 0:0.0 1:1.0 1:2.0 
1.0 -986:-803.0 -986:-803.0 1:1.0 1:1.0 0:1.0 
1.0 -1725:-1787.0 -739:-801.0 1:1.0 1:1.0 4:3.0 
1.0 257:204.0 -245:-298.0 0:0.0 1:1.0 2:4.0 
1.0 508:212.0 -490:-786.0 0:0.0 1:1.0 0:0.0 
1.0 -465:-760.0 -489:-784.0 1:1.0 1:1.0 2:1.0 
1.0 -1193:-1633.0 -237:-677.0 1:1.0 1:1.0 0:3.0 
1.0 522:337.0 22:-163.0 0:0.0 0:1.0 4:5.0 
1.0 -459:-636.0 -469:-646.0 1:1.0 1:1.0 0:0.0 
1.0 479:312.0 -480:-647.0 0:0.0 1:1.0 2:2.0 
1.0 170:225.0 -278:-223.0 0:0.0 1:1.0 3:0.0 
1.0 -585:-781.0 -41:-237.0 1:1.0 1:1.0 2:3.0 
1.0 192:313.0 -302:-181.0 0:0.0 1:1.0 2:1.0 
1.0 210:405.0 218:413.0 0:0.0 0:0.0 2:5.0 
1.0 -785:-610.0 -779:-604.0 1:1.0 1:1.0 4:2.0 
1.0 1270:1961.0 1782:2473.0 0:0.0 0:0.0 4:1.0 
1.0 248:943.0 1271:1966.0 0:0.0 0:0.0 2:3.0 
1.0 -1779:-1075.0 257:961.0 1:1.0 0:0.0 4:2.0 
1.0 -788:-66.0 -1787:-1065.0 1:1.0 1:1.0 5:4.0 
1.0 -1815:-1091.0 -1787:-1063.0 1:1.0 1:1.0 3:4.0 
1.0 -552:-1091.0 -540:-1079.0 1:1.0 1:1.0 3:3.0 
1.0 -1331:-2124.0 -287:-1080.0 1:1.0 1:1.0 4:4.0 
1.0 482:-53.0 490:-45.0 0:1.0 0:1.0 0:3.0 
1.0 -520:-962.0 -528:-970.0 1:1.0 1:1.0 0:0.0 
1.0 503:64.0 -518:-957.0 0:0.0 1:1.0 0:0.0 
1.0 500:58.0 507:65.0 0:0.0 0:0.0 4:1.0 
1.0 503:62.0 -12:-453.0 0:0.0 1:1.0 0:0.0 
1.0 514:78.0 -530:-966.0 0:0.0 1:1.0 2:4.0 
1.0 542:114.0 525:97.0 0:0.0 0:0.0 3:4.0 
1.0 -1291:-1567.0 -243:-519.0 1:1.0 1:1.0 2:1.0 
1.0 500:586.0 519:605.0 0:0.0 0:0.0 1:5.0 
1.0 503:592.0 -1:88.0 0:0.0 1:0.0 2:1.0 
1.0 -530:-434.0 -527:-431.0 1:1.0 1:1.0 2:0.0 
1.0 524:631.0 513:620.0 0:0.0 0:0.0 3:0.0 
1.0 535:643.0 -515:-407.0 0:0.0 1:1.0 4:1.0 
1.0 -472:-361.0 -500:-389.0 1:1.0 1:1.0 2:1.0 
1.0 592:718.0 48:174.0 0:0.0 0:0.0 0:0.0 
1.0 -433:-291.0 -457:-315.0 1:1.0 1:1.0 3:4.0 
1.0 -1178:-1289.0 -192:-303.0 1:1.0 1:1.0 1:4.0 
1.0 553:726.0 -462:-289.0 0:0.0 1:1.0 2:4.0 
1.0 489:673.0 511:695.0 0:0.0 0:0.0 0:5.0 
1.0 -551:-381.0 -512:-342.0 1:1.0 1:1.0 1:0.0 
1.0 -1312:-1398.0 -274:-360.0 1:1.0 1:1.0 1:2.0 
1.0 462:622.0 467:627.0 0:0.0 0:0.0 1:1.0 
1.0 488:635.0 -534:-387.0 0:0.0 1:1.0 1:1.0 
1.0 -1283:-1397.0 -283:-397.0 1:1.0 1:1.0 1:1.0 
1.0 483:604.0 497:618.0 0:0.0 0:0.0 0:3.0 
1.0 486:601.0 -5:110.0 0:0.0 1:0.0 0:5.0 
1.0 496:604.0 -506:-398.0 0:0.0 1:1.0 1:5.0 
1.0 -511:-406.0 -507:-402.0 1:1.0 1:1.0 4:5.0 
1.0 -1258:-1408.0 -256:-406.0 1:1.0 1:1.0 3:1.0 
1.0 522:620.0 -498:-400.0 0:0.0 1:1.0 3:0.0 
1.0 481:564.0 -505:-422.0 0:0.0 1:1.0 3:1.0 
1.0 474:557.0 480:563.0 0:0.0 0:0.0 5:1.0 
1.0 483:549.0 -22:44.0 0:0.0 1:0.0 1:1.0 
1.0 -1321:-1513.0 -277:-469.0 1:1.0 1:1.0 3:5.0 
1.0 500:561.0 500:561.0 0:0.0 0:0.0 0:4.0 
1.0 519:581.0 -525:-463.0 0:0.0 1:1.0 0:2.0 
1.0 -1284:-1479.0 -263:-458.0 1:1.0 1:1.0 5:1.0 
1.0 524:587.0 523:586.0 0:0.0 0:0.0 4:0.0 
1.0 -1234:-1412.0 -239:-417.0 1:1.0 1:1.0 0:4.0 
-0.69921875 -1679:-2188.0 -848:-1357.0 1:1.0 1:1.0 0:5.0 
-0.69921875 -1458:-2093.0 -1058:-1693.0 1:1.0 1:1.0 1:0.0 
-0.69921875 -2088:-2849.0 -1269:-2030.0 1:1.0 1:1.0 4:0.0 
-0.69921875 -2726:-3615.0 -1481:-2370.0 1:1.0 1:1.0 5:1.0 
-0.69921875 -868:-1889.0 -842:-1863.0 1:1.0 1:1.0 1:0.0 
-0.69921875 -1167:-2585.0 -667:-2085.0 1:1.0 1:1.0 4:5.0 
-0.69921875 -66:-1617.0 376:-1175.0 1:1.0 0:1.0 0:2.0 
-0.69921875 149:-1536.0 154:-1531.0 0:1.0 0:1.0 2:4.0 
-0.69921875 144:-1459.0 -286:-1889.0 0:1.0 1:1.0 2:5.0 
-0.69921875 196:-1173.0 185:-1184.0 0:1.0 0:1.0 2:4.0 
-0.69921875 234:-1055.0 -242:-1531.0 0:1.0 1:1.0 2:3.0 
-0.69921875 248:-963.0 -674:-1885.0 0:1.0 1:1.0 2:1.0 
-0.69921875 1120:168.0 244:-708.0 0:0.0 0:1.0 2:5.0 
-0.69921875 242:-621.0 -195:-1058.0 0:1.0 1:1.0 1:1.0 
-0.69921875 -643:-1418.0 -206:-981.0 1:1.0 1:1.0 1:1.0 
-0.69921875 201:-397.0 223:-375.0 0:1.0 0:1.0 5:0.0 
-0.69921875 190:-318.0 -226:-734.0 0:1.0 1:1.0 0:4.0 
-0.69921875 -711:-1042.0 -683:-1014.0 1:1.0 1:1.0 0:3.0 
-0.69921875 -1386:-1853.0 -472:-939.0 1:1.0 1:1.0 2:2.0 
-0.69921875 180:10.0 194:24.0 0:0.0 0:0.0 2:5.0 
-0.69921875 174:88.0 -255:-341.0 0:0.0 1:1.0 0:0.0 
-0.69921875 166:163.0 -705:-708.0 0:0.0 1:1.0 3:4.0 
-0.69921875 -523:-664.0 -490:-631.0 1:1.0 1:1.0 1:4.0 
-0.69921875 431:277.0 -490:-644.0 0:0.0 1:1.0 5:3.0 
-0.69921875 -478:-629.0 -487:-638.0 1:1.0 1:1.0 0:4.0 
-0.69921875 443:292.0 447:296.0 0:0.0 0:0.0 0:4.0 
-0.69921875 442:290.0 -8:-160.0 0:0.0 1:1.0 3:4.0 
-0.69921875 442:375.0 -466:-533.0 0:0.0 1:1.0 1:5.0 
-0.69921875 423:350.0 443:370.0 0:0.0 0:0.0 0:4.0 
-0.69921875 430:357.0 -485:-558.0 0:0.0 1:1.0 2:0.0 
-0.69921875 -511:-583.0 -496:-568.0 1:1.0 1:1.0 2:3.0 
-0.69921875 376:289.0 -47:-134.0 0:0.0 1:1.0 5:3.0 
-0.69921875 -535:-624.0 -515:-604.0 1:1.0 1:1.0 5:5.0 
-0.69921875 -1240:-1558.0 -279:-597.0 1:1.0 1:1.0 1:4.0 
-0.7001953125 494:498.0 -14:-10.0 0:0.0 1:1.0 4:0.0 
-0.7001953125 -453:-438.0 -468:-453.0 1:1.0 1:1.0 2:1.0 
-0.7001953125 -1168:-1385.0 -225:-442.0 1:1.0 1:1.0 3:4.0 
-0.7001953125 1159:1322.0 -231:-68.0 0:0.0 1:1.0 0:4.0 
-0.7001953125 -547:-613.0 -19:-85.0 1:1.0 1:1.0 2:3.0 
-0.7001953125 180:360.0 673:853.0 0:0.0 0:0.0 3:5.0 
-0.7001953125 179:362.0 185:368.0 0:0.0 0:0.0 5:5.0 
-0.7001953125 -773:-594.0 -769:-590.0 1:1.0 1:1.0 2:0.0 
-0.7001953125 -1495:-1552.0 -523:-580.0 1:1.0 1:1.0 1:1.0 
-0.69921875 257:432.0 225:400.0 0:0.0 0:0.0 4:0.0 
-0.69921875 243:416.0 -255:-82.0 0:0.0 1:1.0 1:1.0 
-0.69921875 239:410.0 -734:-563.0 0:0.0 1:1.0 1:3.0 
-0.69921875 1210:1295.0 728:813.0 0:0.0 0:0.0 5:4.0 
-0.69921875 -744:-645.0 -250:-151.0 1:1.0 1:1.0 1:1.0 
-0.69921875 244:356.0 236:348.0 0:0.0 0:0.0 1:3.0 
-0.69921875 253:373.0 -251:-131.0 0:0.0 1:1.0 2:4.0 
-0.69921875 -698:-672.0 -235:-209.0 1:1.0 1:1.0 4:3.0 
-0.69921875 15:287.0 19:291.0 0:0.0 0:0.0 2:2.0 
-0.69921875 -721:-688.0 -231:-198.0 1:1.0 1:1.0 4:1.0 
-0.69921875 -1456:-1664.0 6:-202.0 1:1.0 0:1.0 1:4.0 
-0.69921875 227:266.0 240:279.0 0:0.0 0:0.0 0:2.0 
-0.69921875 215:257.0 -251:-209.0 0:0.0 1:1.0 2:2.0 
-0.69921875 202:245.0 -745:-702.0 0:0.0 1:1.0 5:5.0 
-0.69921875 -44:235.0 -32:247.0 1:0.0 1:0.0 1:1.0 
-0.69921875 227:261.0 -277:-243.0 0:0.0 1:1.0 4:4.0 
-0.69921875 -761:-731.0 -277:-247.0 1:1.0 1:1.0 5:4.0 
-0.69921875 229:249.0 237:257.0 0:0.0 0:0.0 5:2.0 
-0.69921875 4:68.0 3:67.0 0:0.0 0:0.0 1:3.0 
-0.69921875 766:1078.0 751:1063.0 0:0.0 0:0.0 5:3.0 
-0.69921875 14:85.0 8:79.0 0:0.0 0:0.0 4:1.0 
-0.69921875 -978:-901.0 6:83.0 1:1.0 0:0.0 2:1.0 
-0.69921875 10:190.0 8:188.0 0:0.0 0:0.0 1:1.0 
-0.69921875 10:189.0 -485:-306.0 0:0.0 1:1.0 2:0.0 
-0.69921875 255:197.0 249:191.0 0:0.0 0:0.0 2:5.0 
-0.69921875 524:335.0 511:322.0 0:0.0 0:0.0 1:3.0 
-0.69921875 518:338.0 -467:-647.0 0:0.0 1:1.0 5:1.0 
-0.69921875 -1186:-1605.0 -220:-639.0 1:1.0 1:1.0 4:2.0 
-0.69921875 499:327.0 504:332.0 0:0.0 0:0.0 2:5.0 
-0.69921875 492:324.0 12:-156.0 0:0.0 0:1.0 5:4.0 
-0.69921875 -501:-668.0 -487:-654.0 1:1.0 1:1.0 3:1.0 
-0.69921875 -1237:-1551.0 -246:-560.0 1:1.0 1:1.0 1:0.0 
-0.69921875 459:384.0 470:395.0 0:0.0 0:0.0 2:0.0 
-0.69921875 439:357.0 -25:-107.0 0:0.0 1:1.0 1:4.0 
-0.69921875 179:219.0 692:732.0 0:0.0 0:0.0 3:4.0 
-0.69921875 196:226.0 197:227.0 0:0.0 0:0.0 4:4.0 
-0.69921875 -811:-700.0 -299:-188.0 1:1.0 1:1.0 1:2.0 
-0.69921875 -1574:-1616.0 -50:-92.0 1:1.0 1:1.0 0:4.0 
-0.69921875 216:405.0 -281:-92.0 0:0.0 1:1.0 2:4.0 
-0.69921875 225:407.0 -781:-599.0 0:0.0 1:1.0 0:1.0 
-0.69921875 -1548:-1624.0 -526:-602.0 1:1.0 1:1.0 0:4.0 
-0.69921875 -764:-65.0 764:1463.0 1:1.0 0:0.0 4:5.0 
-0.69921875 -2536:-2081.0 4:459.0 1:1.0 0:0.0 3:2.0 
-0.69921875 -757:-42.0 -762:-47.0 1:1.0 1:1.0 3:3.0 
-0.69921875 -768:-49.0 -1273:-554.0 1:1.0 1:1.0 2:1.0 
-0.69921875 -2588:-2115.0 -1534:-1061.0 1:1.0 1:1.0 2:2.0 
-0.69921875 -278:-57.0 -274:-53.0 1:1.0 1:1.0 0:0.0 
-0.69921875 -22:-53.0 -532:-563.0 1:1.0 1:1.0 3:4.0 
-0.69921875 230:-55.0 -791:-1076.0 0:1.0 1:1.0 4:4.0 
-0.69921875 498:-38.0 -21:-557.0 0:1.0 1:1.0 3:2.0 
-0.69921875 510:-28.0 -532:-1070.0 0:1.0 1:1.0 0:2.0 
-0.69921875 -1291:-1989.0 -268:-966.0 1:1.0 1:1.0 0:2.0 
-0.69921875 519:78.0 519:78.0 0:0.0 0:0.0 0:1.0 
-0.69921875 518:78.0 1:-439.0 0:0.0 0:1.0 1:2.0 
-0.69921875 -535:-976.0 -517:-958.0 1:1.0 1:1.0 5:3.0 
-0.69921875 -1317:-2016.0 -263:-962.0 1:1.0 1:1.0 4:5.0 
-0.69921875 -516:-948.0 -529:-961.0 1:1.0 1:1.0 2:4.0 
-0.69921875 -1288:-1976.0 -266:-954.0 1:1.0 1:1.0 5:1.0 
-0.69921875 540:217.0 10:-313.0 0:0.0 0:1.0 0:2.0 
-0.69921875 531:311.0 -509:-729.0 0:0.0 1:1.0 4:4.0 
-0.69921875 -506:-626.0 -501:-621.0 1:1.0 1:1.0 5:3.0 
-0.69921875 512:604.0 -520:-428.0 0:0.0 1:1.0 0:4.0 
-0.7001953125 -1299:-1459.0 -270:-430.0 1:1.0 1:1.0 1:2.0 
-0.7001953125 537:644.0 -1:106.0 0:0.0 1:0.0 1:5.0 
-0.7001953125 -1215:-1355.0 -229:-369.0 1:1.0 1:1.0 3:0.0 
-0.69921875 606:726.0 559:679.0 0:0.0 0:0.0 5:2.0 
-0.69921875 577:712.0 -461:-326.0 0:0.0 1:1.0 0:2.0 
-0.69921875 563:721.0 551:709.0 0:0.0 0:0.0 2:3.0 
-0.69921875 564:730.0 46:212.0 0:0.0 0:0.0 4:2.0 
-0.69921875 -447:-268.0 -467:-288.0 1:1.0 1:1.0 3:1.0 
-0.69921875 -1201:-1277.0 -214:-290.0 1:1.0 1:1.0 3:0.0 
-0.69921875 467:654.0 2:189.0 0:0.0 0:0.0 0:1.0 
-0.69921875 462:642.0 -501:-321.0 0:0.0 1:1.0 5:0.0 
-0.69921875 484:638.0 -31:123.0 0:0.0 1:0.0 5:4.0 
-0.69921875 -519:-379.0 -531:-391.0 1:1.0 1:1.0 0:2.0 
-0.69921875 538:639.0 514:615.0 0:0.0 0:0.0 4:1.0 
-0.69921875 536:635.0 9:108.0 0:0.0 0:0.0 4:1.0 
-0.69921875 -490:-392.0 -496:-398.0 1:1.0 1:1.0 0:0.0 
-0.69921875 -1247:-1405.0 -241:-399.0 1:1.0 1:1.0 1:5.0 
-0.69921875 503:592.0 513:602.0 0:0.0 0:0.0 2:0.0 
-0.69921875 494:580.0 5:91.0 0:0.0 0:0.0 3:1.0 
-0.69921875 -538:-456.0 -518:-436.0 1:1.0 1:1.0 3:2.0 
-0.69921875 -1304:-1475.0 -270:-441.0 1:1.0 1:1.0 0:1.0 
-0.69921875 471:554.0 -29:54.0 0:0.0 1:0.0 0:0.0 
-0.69921875 472:552.0 -537:-457.0 0:0.0 1:1.0 3:1.0 
-0.69921875 -549:-474.0 -539:-464.0 1:1.0 1:1.0 5:0.0 
-0.69921875 -1322:-1500.0 -286:-464.0 1:1.0 1:1.0 0:3.0 
-0.69921875 483:550.0 490:557.0 0:0.0 0:0.0 5:5.0 
-0.69921875 486:551.0 -533:-468.0 0:0.0 1:1.0 4:1.0 
-0.69921875 -544:-481.0 -530:-467.0 1:1.0 1:1.0 5:1.0 
-0.69921875 511:574.0 -12:51.0 0:0.0 1:0.0 4:4.0 
-0.69921875 -510:-448.0 -522:-460.0 1:1.0 1:1.0 4:0.0 
-0.69921875 543:612.0 14:83.0 0:0.0 0:0.0 3:0.0 
-0.69921875 563:638.0 -494:-419.0 0:0.0 1:1.0 2:3.0 
-0.69921875 -462:-385.0 -493:-416.0 1:1.0 1:1.0 5:2.0 
-0.69921875 514:598.0 536:620.0 0:0.0 0:0.0 2:2.0 
-0.69921875 508:594.0 21:107.0 0:0.0 0:0.0 3:5.0 
-0.69921875 504:592.0 -496:-408.0 0:0.0 1:1.0 3:0.0 
-0.69921875 2040:2444.0 1015:1419.0 0:0.0 0:0.0 1:4.0 
-0.69921875 998:1404.0 495:901.0 0:0.0 0:0.0 4:4.0 
