svm_type c_svc
kernel_type linear
nr_class 2
total_sv 387
rho -16.345208865149104
label 0 1
nr_sv 65 322
SV
0.12007896088490234 0:8.0 0:8.0 1:1.0 1:1.0 1364:832.0 
0.0898833393072988 0:5.0 0:5.0 0:1.0 0:1.0 1176:729.0 
3.3244137263737587E-4 -1:2.0 0:4.0 0:1.0 0:1.0 1291:836.0 
0.11089377210962818 -3:0.0 -1:2.0 0:0.0 0:1.0 1270:737.0 
0.30604540989024936 0:-9.0 1:-7.0 0:0.0 1:0.0 2176:1389.0 
0.04318982192069472 -5:-7.0 -5:-7.0 0:0.0 0:0.0 1235:732.0 
0.05419351042002812 0:8.0 3:11.0 1:1.0 1:1.0 1825:1074.0 
0.31503398771402663 -1:4.0 -1:4.0 0:1.0 0:1.0 1530:959.0 
0.0037687324169696813 3:24.0 5:27.0 1:1.0 1:1.0 2122:1293.0 
0.10433437872199587 -2:17.0 2:23.0 0:1.0 1:1.0 2055:1288.0 
0.4660531419982334 -4:0.0 -1:2.0 0:0.0 0:1.0 1922:1196.0 
0.0010164979538065818 -7:-8.0 -4:-6.0 0:0.0 0:0.0 1772:1094.0 
0.7589315989889123 -6:-13.0 -4:-11.0 0:0.0 0:0.0 1619:1050.0 
0.0035921220896213074 -3:-12.0 -3:-12.0 0:0.0 0:0.0 1592:1063.0 
1.0 0:-9.0 0:-9.0 0:0.0 0:0.0 1520:960.0 
0.002654050600799837 -1:-7.0 0:-6.0 0:0.0 0:0.0 1399:911.0 
0.9297796145577241 -2:-7.0 -1:-6.0 0:0.0 0:0.0 1402:869.0 
1.0 -7:-12.0 -4:-9.0 0:0.0 0:0.0 1145:735.0 
1.0 -6:-12.0 -4:-10.0 0:0.0 0:0.0 1203:732.0 
1.6182592507285136E-6 -16:-32.0 -13:-29.0 0:0.0 0:0.0 2870:1918.0 
5.460376473581297E-6 -1:-20.0 -1:-20.0 0:0.0 0:0.0 1821:1225.0 
1.0 0:-15.0 0:-15.0 1:0.0 1:0.0 1837:1192.0 
0.0018774473740035007 0:-8.0 0:-8.0 1:0.0 1:0.0 1741:1050.0 
0.954827194700539 0:-1.0 0:-1.0 1:0.0 1:0.0 1424:908.0 
0.35829196728094864 0:-1.0 0:-1.0 1:0.0 1:0.0 1443:879.0 
1.0 0:0.0 0:0.0 1:0.0 1:0.0 1433:882.0 
1.0 -6:-8.0 -3:-5.0 0:0.0 0:0.0 1384:742.0 
0.01913794119936855 -10:-17.0 -3:-10.0 0:0.0 0:0.0 1844:1327.0 
0.08678007087402029 -10:-18.0 -4:-12.0 0:0.0 0:0.0 2049:1276.0 
0.023267302493373762 -7:-15.0 -7:-15.0 0:0.0 0:0.0 2008:1340.0 
0.007872147279521853 -6:-19.0 -3:-16.0 0:0.0 0:0.0 1930:1226.0 
0.40299019479741055 -7:-20.0 -5:-18.0 0:0.0 0:0.0 1950:1161.0 
0.13843246177748927 -9:-23.0 -5:-20.0 0:0.0 0:0.0 1792:1175.0 
1.1768557474667869E-5 1:12.0 2:13.0 1:1.0 1:1.0 1202:735.0 
5.924048513258048E-4 -15:-11.0 -8:-4.0 0:0.0 0:0.0 2164:1325.0 
0.19945684569653296 0:-37.0 0:-37.0 1:0.0 1:0.0 1536:865.0 
0.001961134416896099 5:-18.0 1:-21.0 1:0.0 1:0.0 1445:811.0 
0.00863372571318771 9:-9.0 3:-15.0 1:0.0 1:0.0 1383:856.0 
0.0012263017534099386 8:-6.0 4:-10.0 1:0.0 1:0.0 1360:803.0 
0.6864733910318644 -4:-12.0 2:-5.0 0:0.0 1:0.0 1205:741.0 
0.4719252344443259 -5:-7.0 -3:-5.0 0:0.0 0:0.0 1238:716.0 
1.0 -6:-8.0 -5:-6.0 0:0.0 0:0.0 1277:750.0 
0.003095810723316079 -42:-56.0 -17:-31.0 0:0.0 0:0.0 2148:1277.0 
3.4166743235508604E-5 -71:-104.0 -41:-74.0 0:0.0 0:0.0 2123:1296.0 
1.6809316253430634E-4 -55:-107.0 -46:-98.0 0:0.0 0:0.0 2091:1303.0 
2.0118290129008854E-4 -19:-92.0 -18:-92.0 0:0.0 0:0.0 1983:1309.0 
7.027412879577358E-5 -14:-91.0 -13:-90.0 0:0.0 0:0.0 1400:958.0 
0.00801543126010033 8:-15.0 8:-15.0 1:0.0 1:0.0 1651:1063.0 
0.013399597532171119 3:-2.0 3:-2.0 1:0.0 1:0.0 1745:1041.0 
0.9536693567695156 0:2.0 0:2.0 0:1.0 0:1.0 1446:950.0 
0.9336896373630795 -1:1.0 0:2.0 0:1.0 0:1.0 1430:890.0 
0.9951930819007041 -4:-1.0 -2:0.0 0:0.0 0:1.0 1411:836.0 
1.0 -7:-4.0 -3:0.0 0:0.0 0:0.0 1373:807.0 
0.04010573013202221 -15:-15.0 -7:-7.0 0:0.0 0:0.0 1261:810.0 
0.4176147403884824 -14:-16.0 -8:-10.0 0:0.0 0:0.0 1235:822.0 
0.0013512266437521756 14:45.0 8:39.0 1:1.0 1:1.0 1736:1197.0 
0.007305215281078713 17:28.0 6:17.0 1:1.0 1:1.0 1250:860.0 
0.3581074390244192 -3:8.0 -2:9.0 0:1.0 0:1.0 1346:834.0 
0.011510864958392887 6:14.0 2:10.0 1:1.0 1:1.0 1156:770.0 
0.9749835460839518 -12:-8.0 -3:0.0 0:0.0 0:0.0 1554:960.0 
0.41613279599771774 1:4.0 -6:-3.0 1:1.0 0:0.0 1535:971.0 
0.04541659708056868 1:2.0 -1:0.0 1:1.0 0:0.0 1628:1016.0 
1.0 -1:0.0 0:0.0 0:0.0 1:1.0 1506:928.0 
0.9323580624651272 -2:-5.0 1:-1.0 0:0.0 1:0.0 1447:976.0 
0.1209626796044796 -5:-10.0 -4:-9.0 0:0.0 0:0.0 1407:930.0 
-0.9506813326214212 -6:-8.0 -4:-6.0 0:0.0 0:0.0 1203:770.0 
-0.9720982464525495 -6:-11.0 -4:-9.0 0:0.0 0:0.0 1145:744.0 
-3.0016233548646245E-5 -6:-12.0 -4:-10.0 0:0.0 0:0.0 1142:809.0 
-4.527596803689432E-5 -8:-14.0 -4:-11.0 0:0.0 0:0.0 1120:715.0 
-4.600234398506732E-5 -8:-16.0 -4:-12.0 0:0.0 0:0.0 1143:723.0 
-0.012582661058027956 -9:-17.0 -4:-13.0 0:0.0 0:0.0 1156:706.0 
-2.3931703146718356E-5 -9:-18.0 -5:-13.0 0:0.0 0:0.0 1104:733.0 
-2.7832215630338675E-5 -9:-18.0 -5:-14.0 0:0.0 0:0.0 1091:674.0 
-9.690065973406483E-6 -4:-13.0 0:-9.0 0:0.0 1:0.0 2284:1386.0 
-8.122862618082943E-6 -5:-14.0 -1:-10.0 0:0.0 0:0.0 2294:1366.0 
-1.1075905060578347E-5 -5:-14.0 -2:-12.0 0:0.0 0:0.0 2137:1318.0 
-1.2856629106415666E-5 -6:-15.0 -4:-12.0 0:0.0 0:0.0 2236:1256.0 
-1.197585454247448E-5 -7:-15.0 -4:-12.0 0:0.0 0:0.0 2143:1304.0 
-1.7894122018097735E-4 -6:-14.0 -5:-12.0 0:0.0 0:0.0 2091:1305.0 
-7.050813234516241E-6 -3:-10.0 -4:-11.0 0:0.0 0:0.0 2050:1260.0 
-7.646536166465285E-6 -3:-10.0 -3:-11.0 0:0.0 0:0.0 2070:1235.0 
-8.520429535365641E-6 -2:-10.0 -2:-10.0 0:0.0 0:0.0 1970:1270.0 
-1.1033476987748213E-5 -1:-9.0 0:-9.0 0:0.0 0:0.0 2274:1379.0 
-1.0090756530840249E-5 0:-8.0 0:-8.0 0:0.0 0:0.0 2061:1313.0 
-1.1838352691798409E-5 0:-7.0 0:-7.0 1:0.0 1:0.0 1965:1212.0 
-2.2872565835635567E-4 0:-7.0 0:-7.0 0:0.0 0:0.0 1983:1214.0 
-0.3985406285027091 0:-7.0 0:-6.0 0:0.0 0:0.0 1950:1174.0 
-0.017643047476008374 0:-5.0 0:-5.0 1:0.0 1:0.0 1844:1250.0 
-1.0980734492359294E-5 1:-4.0 0:-4.0 1:0.0 1:0.0 1850:1261.0 
-1.205881240518999E-5 1:-3.0 0:-4.0 1:0.0 1:0.0 1781:1179.0 
-0.04624118564142639 1:-2.0 0:-2.0 1:0.0 1:0.0 1825:1259.0 
-1.430118785916272E-5 2:1.0 1:0.0 1:1.0 1:1.0 1683:1068.0 
-3.4704053211746605E-5 -5:-8.0 -5:-7.0 0:0.0 0:0.0 1284:715.0 
-2.9895046785970684E-5 -6:-9.0 -4:-7.0 0:0.0 0:0.0 1190:800.0 
-0.6819067418186957 -6:-9.0 -4:-7.0 0:0.0 0:0.0 1205:746.0 
-3.77588835807771E-5 -6:-10.0 -4:-8.0 0:0.0 0:0.0 1212:715.0 
-0.1420558945431041 -5:-10.0 -3:-8.0 0:0.0 0:0.0 1407:792.0 
-1.9824934729561323E-5 -5:-10.0 -3:-8.0 0:0.0 0:0.0 1195:720.0 
-0.48135826970774515 -4:-10.0 -3:-9.0 0:0.0 0:0.0 1238:702.0 
-2.403861732613188E-5 -3:-10.0 -3:-9.0 0:0.0 0:0.0 1159:694.0 
-1.4535546962493566E-5 -2:-9.0 -2:-9.0 0:0.0 0:0.0 1221:985.0 
-0.08534286087861859 -2:-9.0 -2:-9.0 0:0.0 0:0.0 1176:768.0 
-4.905886903066827E-6 0:12.0 1:13.0 1:1.0 1:1.0 1528:990.0 
-1.0290342837599083E-5 0:12.0 0:13.0 0:1.0 1:1.0 1956:1262.0 
-1.0223439004681481E-5 0:12.0 0:12.0 0:1.0 0:1.0 1892:1225.0 
-2.1093933032485813E-5 0:11.0 0:11.0 0:1.0 0:1.0 1358:853.0 
-8.587005366741634E-6 -1:10.0 0:11.0 0:1.0 0:1.0 2006:1221.0 
-9.236707815347462E-6 -1:10.0 0:10.0 0:1.0 0:1.0 1986:1192.0 
-0.4703903080797916 0:10.0 0:10.0 0:1.0 0:1.0 1922:1185.0 
-1.3120659755910238E-5 4:13.0 2:12.0 1:1.0 1:1.0 1747:1148.0 
-6.985121278557033E-6 2:11.0 3:12.0 1:1.0 1:1.0 1732:1087.0 
-8.201127275992075E-6 1:10.0 3:12.0 1:1.0 1:1.0 1868:1241.0 
-4.4989803302405794E-6 0:7.0 2:10.0 1:1.0 1:1.0 1769:1040.0 
-1.5043445748326003E-5 0:7.0 0:7.0 1:1.0 1:1.0 1803:1074.0 
-2.2226212272231768E-5 -1:3.0 -1:3.0 0:1.0 0:1.0 1547:969.0 
-1.9228630537577926E-5 -1:2.0 -1:2.0 0:1.0 0:1.0 1517:1012.0 
-1.5179477389530735E-5 -1:2.0 -1:2.0 0:1.0 0:1.0 1699:1139.0 
-1.5259209421729298E-5 0:1.0 0:1.0 0:1.0 0:1.0 1570:1005.0 
-1.631276939182633E-5 0:1.0 0:1.0 0:1.0 0:1.0 1542:972.0 
-0.003304359697604517 0:1.0 0:1.0 0:1.0 0:1.0 1520:913.0 
-2.036892076637455E-5 0:1.0 0:1.0 1:1.0 1:1.0 1499:924.0 
-1.0 0:0.0 0:0.0 0:1.0 0:1.0 1424:867.0 
-1.866038380809132E-5 0:0.0 0:0.0 0:1.0 0:1.0 1426:909.0 
-1.0 0:0.0 0:0.0 0:1.0 0:1.0 1430:831.0 
-0.8638186793133262 0:1.0 0:1.0 1:1.0 1:1.0 1384:859.0 
-2.033638572744987E-5 1:2.0 0:1.0 1:1.0 1:1.0 1480:915.0 
-2.35699525083455E-5 3:4.0 1:2.0 1:1.0 1:1.0 1392:874.0 
-2.239676227481529E-5 9:11.0 3:5.0 1:1.0 1:1.0 1345:841.0 
-0.0011977880881662985 12:15.0 5:9.0 1:1.0 1:1.0 1360:839.0 
-2.5828792969845163E-5 13:17.0 7:11.0 1:1.0 1:1.0 1335:819.0 
-2.8728384694750454E-5 15:20.0 8:13.0 1:1.0 1:1.0 1229:776.0 
-3.4405028538689336E-5 16:22.0 9:15.0 1:1.0 1:1.0 1332:764.0 
-3.820419348707486E-5 17:24.0 10:17.0 1:1.0 1:1.0 1215:762.0 
-3.187255784375906E-5 18:26.0 11:19.0 1:1.0 1:1.0 1178:737.0 
-3.315698128156636E-5 17:26.0 11:20.0 1:1.0 1:1.0 1327:825.0 
-4.1096809162221494E-5 17:26.0 11:21.0 1:1.0 1:1.0 1237:741.0 
-3.525547938322156E-5 15:26.0 11:22.0 1:1.0 1:1.0 1201:700.0 
-3.2523921650217374E-5 14:25.0 11:23.0 1:1.0 1:1.0 1194:760.0 
-3.040707855512873E-5 12:24.0 10:23.0 1:1.0 1:1.0 1137:745.0 
-3.552464498930061E-5 10:24.0 9:23.0 1:1.0 1:1.0 1356:697.0 
-1.884098863003584E-5 8:23.0 8:23.0 1:1.0 1:1.0 1302:785.0 
-3.367636846471837E-5 6:23.0 6:22.0 1:1.0 1:1.0 1245:678.0 
-3.214297989005821E-5 6:23.0 5:22.0 1:1.0 1:1.0 1196:694.0 
-3.7276226165542715E-5 6:25.0 4:23.0 1:1.0 1:1.0 1115:641.0 
-1.3388899026425687E-5 -7:-10.0 -5:-8.0 0:0.0 0:0.0 1817:1180.0 
-0.0081472881274017 -7:-12.0 -5:-10.0 0:0.0 0:0.0 1651:1048.0 
-1.6448919687443005E-5 -7:-13.0 -5:-11.0 0:0.0 0:0.0 1703:1072.0 
-7.36203615669153E-6 -4:-12.0 -3:-12.0 0:0.0 0:0.0 1711:1072.0 
-0.0028680900947516213 -8:-32.0 -4:-28.0 0:0.0 0:0.0 2148:1386.0 
-1.8817964466180066E-5 -8:-31.0 -4:-28.0 0:0.0 0:0.0 2173:1257.0 
-1.4621998079943191E-5 -8:-31.0 -4:-28.0 0:0.0 0:0.0 2261:1426.0 
-0.0804585233842428 -7:-31.0 -4:-28.0 0:0.0 0:0.0 2176:1392.0 
-1.0793948946993006E-5 -7:-30.0 -5:-28.0 0:0.0 0:0.0 2216:1374.0 
-1.0184493747591631E-5 -6:-29.0 -5:-27.0 0:0.0 0:0.0 2292:1406.0 
-0.23436786279569102 -6:-28.0 -4:-27.0 0:0.0 0:0.0 2176:1336.0 
-9.179540216693349E-6 -5:-27.0 -4:-26.0 0:0.0 0:0.0 1495:950.0 
-8.417910417793623E-6 -4:-25.0 -4:-25.0 0:0.0 0:0.0 2146:1299.0 
-1.696309187022941E-6 -3:-24.0 -3:-24.0 0:0.0 0:0.0 2566:1458.0 
-0.001492392345551434 -1:-21.0 -2:-22.0 0:0.0 0:0.0 1736:1095.0 
-1.096580668366007E-4 0:-18.0 -1:-19.0 0:0.0 0:0.0 702:459.0 
-1.1917106055967251E-5 0:-16.0 0:-17.0 1:0.0 0:0.0 1854:1199.0 
-1.1523994581943645E-5 0:-14.0 0:-14.0 1:0.0 1:0.0 2105:1230.0 
-1.5892652617603272E-5 0:-12.0 0:-12.0 1:0.0 1:0.0 1875:1047.0 
-1.3396069610540026E-5 0:-10.0 0:-10.0 1:0.0 1:0.0 1806:1140.0 
-1.5547160705882597E-5 0:-9.0 0:-9.0 1:0.0 1:0.0 1751:1058.0 
-1.6880059536300817E-5 0:-7.0 0:-7.0 1:0.0 1:0.0 1652:1015.0 
-1.6967423139585015E-5 0:-5.0 0:-5.0 1:0.0 1:0.0 1635:1012.0 
-2.5134227748217526E-5 -2:-3.0 0:-1.0 0:0.0 0:0.0 1338:867.0 
-1.0 -4:-5.0 -1:-2.0 0:0.0 0:0.0 1411:832.0 
-3.154249308248201E-5 -6:-7.0 -2:-3.0 0:0.0 0:0.0 1317:809.0 
-3.212735051540075E-5 -7:-8.0 -2:-4.0 0:0.0 0:0.0 1298:816.0 
-2.0311177761159226E-5 -8:-23.0 -5:-20.0 0:0.0 0:0.0 1729:1106.0 
-0.9762621793202415 -7:-22.0 -5:-20.0 0:0.0 0:0.0 1837:1221.0 
-1.4948688748505873E-5 -6:-22.0 -5:-20.0 0:0.0 0:0.0 1744:1144.0 
-6.714206005387784E-6 -3:-18.0 -3:-18.0 0:0.0 0:0.0 1774:1024.0 
-6.998424964420827E-6 -3:-17.0 -3:-17.0 0:0.0 0:0.0 1583:1043.0 
-1.0790371209701171E-5 -2:-16.0 -2:-17.0 0:0.0 0:0.0 1531:1001.0 
-1.23332571019155E-5 -2:-16.0 -2:-16.0 0:0.0 0:0.0 1529:969.0 
-1.707903649924022E-5 0:-12.0 0:-12.0 0:0.0 0:0.0 1524:1010.0 
-0.4073412310728347 0:-11.0 0:-11.0 0:0.0 0:0.0 1535:992.0 
-0.9727654671296223 0:-11.0 0:-11.0 0:0.0 0:0.0 1506:954.0 
-1.0 0:-10.0 0:-10.0 0:0.0 0:0.0 1520:957.0 
-1.0 0:-10.0 0:-10.0 0:0.0 0:0.0 1446:906.0 
-1.9611645132613484E-5 0:-9.0 0:-9.0 1:0.0 1:0.0 1421:942.0 
-1.0 0:-8.0 0:-8.0 1:0.0 1:0.0 1447:910.0 
-2.209879751622409E-5 0:-7.0 0:-8.0 1:0.0 1:0.0 1452:879.0 
-0.4788200049538613 0:-6.0 0:-7.0 1:0.0 1:0.0 1235:783.0 
-7.178726894141907E-5 1:-6.0 0:-6.0 1:0.0 1:0.0 748:494.0 
-3.3280273442216474E-5 0:-5.0 0:-6.0 1:0.0 1:0.0 1368:716.0 
-0.34174083137152084 0:-5.0 0:-5.0 1:0.0 1:0.0 1346:874.0 
-1.0 1:-4.0 0:-4.0 1:0.0 1:0.0 1402:808.0 
-2.2246014737069807E-5 1:-2.0 1:-3.0 1:0.0 1:0.0 1341:861.0 
-3.3725076765411105E-5 2:-1.0 1:-2.0 1:0.0 1:0.0 1230:734.0 
-3.0124682512648152E-5 3:0.0 1:-1.0 1:1.0 1:0.0 1186:761.0 
-3.0399924871933303E-5 6:7.0 3:4.0 1:1.0 1:1.0 1269:743.0 
-3.579147523998269E-5 5:6.0 4:5.0 1:1.0 1:1.0 1209:704.0 
-3.274686045953348E-5 5:6.0 4:5.0 1:1.0 1:1.0 1188:736.0 
-2.659763430419656E-5 4:6.0 4:6.0 1:1.0 1:1.0 1258:807.0 
-3.156441754138504E-5 3:6.0 4:6.0 1:1.0 1:1.0 1232:765.0 
-2.7171040605503902E-5 2:6.0 3:6.0 1:1.0 1:1.0 1200:672.0 
-2.0300804992177858E-5 2:6.0 2:6.0 1:1.0 1:1.0 1140:741.0 
-2.2174498223532236E-5 2:6.0 2:6.0 1:1.0 1:1.0 1095:709.0 
-3.78649380134143E-5 3:8.0 2:7.0 1:1.0 1:1.0 1058:706.0 
-0.01671642535307692 3:8.0 1:7.0 1:1.0 1:1.0 1145:705.0 
-2.2663099965760353E-5 2:8.0 1:7.0 1:1.0 1:1.0 1105:658.0 
-3.820723946486861E-5 4:10.0 2:8.0 1:1.0 1:1.0 1154:673.0 
-3.516408061146834E-4 -44:-77.0 -32:-66.0 0:0.0 0:0.0 1291:837.0 
-9.703745330979739E-5 -40:-76.0 -31:-68.0 0:0.0 0:0.0 637:410.0 
-3.267433119381049E-4 -35:-74.0 -30:-69.0 0:0.0 0:0.0 302:207.0 
-2.8088357726280136E-5 -24:-67.0 -24:-68.0 0:0.0 0:0.0 1285:780.0 
-6.944474691155566E-6 -14:-62.0 -17:-65.0 0:0.0 0:0.0 1571:1033.0 
-1.7994296093132777E-5 0:-51.0 0:-51.0 1:0.0 1:0.0 1505:991.0 
-1.956682285856337E-5 0:-49.0 0:-49.0 1:0.0 1:0.0 1577:950.0 
-0.044944235618089155 1:-48.0 1:-48.0 1:0.0 1:0.0 1628:1027.0 
-1.6644787821050806E-5 1:-43.0 1:-43.0 1:0.0 1:0.0 1539:953.0 
-1.8542841784325377E-5 1:-41.0 1:-41.0 1:0.0 1:0.0 1456:906.0 
-1.921156088577076E-5 0:-39.0 0:-39.0 1:0.0 1:0.0 1519:957.0 
-2.5330940625609856E-5 -12:-89.0 -7:-84.0 0:0.0 0:0.0 1997:1267.0 
-1.954062259288924E-5 -14:-90.0 -7:-83.0 0:0.0 0:0.0 1952:1197.0 
-9.33544550371994E-6 -15:-90.0 -7:-83.0 0:0.0 0:0.0 1994:1286.0 
-3.367832896668441E-5 -16:-90.0 -8:-82.0 0:0.0 0:0.0 2032:1320.0 
-4.0055956151637285E-5 -17:-89.0 -8:-81.0 0:0.0 0:0.0 2036:1293.0 
-3.461198986751661E-5 -16:-84.0 -10:-78.0 0:0.0 0:0.0 1912:1307.0 
-2.344465137156087E-5 -15:-81.0 -10:-77.0 0:0.0 0:0.0 1828:1222.0 
-1.5431892268364814E-6 -13:-77.0 -10:-75.0 0:0.0 0:0.0 1823:1220.0 
-7.810477262664322E-6 -12:-73.0 -11:-72.0 0:0.0 0:0.0 1855:1220.0 
-7.290161551643638E-6 -9:-69.0 -10:-69.0 0:0.0 0:0.0 1834:1218.0 
-2.6887776164726778E-5 -6:-64.0 -8:-66.0 0:0.0 0:0.0 1853:1160.0 
-2.0312236147069867E-5 -2:-57.0 -6:-61.0 0:0.0 0:0.0 1799:1413.0 
-9.572099148469527E-4 6:-43.0 -1:-51.0 1:0.0 0:0.0 1772:1178.0 
-1.3459975790605547E-5 9:-37.0 0:-45.0 1:0.0 1:0.0 1770:1225.0 
-1.5805439953682123E-5 12:-28.0 5:-35.0 1:0.0 1:0.0 1697:1074.0 
-1.6381471628330734E-5 11:-23.0 8:-26.0 1:0.0 1:0.0 1923:1029.0 
-0.043048542465674314 -13:-17.0 -10:-13.0 0:0.0 0:0.0 1261:755.0 
-3.972264741262028E-5 -12:-16.0 -10:-14.0 0:0.0 0:0.0 1217:787.0 
-0.0031778821816651984 -11:-16.0 -9:-15.0 0:0.0 0:0.0 1399:767.0 
-4.2003073401069976E-5 -9:-15.0 -8:-15.0 0:0.0 0:0.0 1244:750.0 
-6.181606569492607E-5 -7:-15.0 -7:-15.0 0:0.0 0:0.0 1206:662.0 
-0.008526186893064341 -6:-16.0 -7:-16.0 0:0.0 0:0.0 1250:740.0 
-4.151624127937821E-5 -6:-16.0 -6:-16.0 0:0.0 0:0.0 1151:729.0 
-4.213005853647327E-5 -7:-19.0 -5:-17.0 0:0.0 0:0.0 1167:679.0 
-4.488776803983347E-5 -8:-21.0 -5:-18.0 0:0.0 0:0.0 1225:735.0 
-5.663261790443762E-5 -8:-23.0 -4:-18.0 0:0.0 0:0.0 1112:689.0 
-2.1995262499672168E-5 -6:-22.0 -3:-19.0 0:0.0 0:0.0 1072:744.0 
-5.915857310314741E-5 5:-8.0 0:-14.0 1:0.0 0:0.0 872:533.0 
-1.034529030797495E-5 17:5.0 2:-8.0 1:1.0 1:0.0 2090:1332.0 
-0.09769883771687395 28:18.0 6:-3.0 1:1.0 1:0.0 2055:1300.0 
-1.028946455484918E-5 38:30.0 9:1.0 1:1.0 1:1.0 2120:1298.0 
-9.826474211454417E-6 45:39.0 13:7.0 1:1.0 1:1.0 2243:1328.0 
-7.07773278541591E-6 40:36.0 16:12.0 1:1.0 1:1.0 2193:1565.0 
-8.559210931866934E-6 36:35.0 20:19.0 1:1.0 1:1.0 2235:1423.0 
-1.0019354753722629E-5 35:36.0 25:26.0 1:1.0 1:1.0 2030:1315.0 
-1.067213952906938E-5 30:52.0 23:45.0 1:1.0 1:1.0 2093:1273.0 
-9.272352234985864E-6 25:50.0 21:47.0 1:1.0 1:1.0 2162:1366.0 
-5.740122462468663E-4 20:48.0 19:47.0 1:1.0 1:1.0 2164:1386.0 
-1.1628994819995968E-5 14:46.0 15:47.0 1:1.0 1:1.0 2005:1310.0 
-5.599853803275004E-6 8:43.0 11:46.0 1:1.0 1:1.0 2043:1451.0 
-5.298053011988593E-6 4:41.0 7:44.0 1:1.0 1:1.0 2116:1420.0 
-3.357891829651025E-5 -1:35.0 -1:34.0 0:1.0 0:1.0 1939:1306.0 
-3.568662482937041E-6 0:35.0 -2:34.0 0:1.0 0:1.0 2011:1286.0 
-1.5746451854792194E-5 3:39.0 -1:34.0 1:1.0 0:1.0 1975:1253.0 
-1.3977710642451403E-5 10:45.0 1:36.0 1:1.0 1:1.0 1880:1110.0 
-1.2432333104595304E-5 13:46.0 3:37.0 1:1.0 1:1.0 1946:1179.0 
-1.4236476941848048E-5 14:43.0 11:40.0 1:1.0 1:1.0 1720:1180.0 
-1.4619094458472414E-5 12:41.0 11:39.0 1:1.0 1:1.0 1836:1064.0 
-1.4757266559575742E-5 10:36.0 9:36.0 1:1.0 1:1.0 1733:1080.0 
-0.00875030057522196 6:32.0 7:32.0 1:1.0 1:1.0 1930:1104.0 
-1.6026474615217057E-5 4:28.0 4:28.0 1:1.0 1:1.0 1768:1037.0 
-1.64247857420663E-5 1:24.0 1:24.0 1:1.0 1:1.0 1591:1054.0 
-0.7835743815780178 0:22.0 0:22.0 1:1.0 1:1.0 1619:1017.0 
-1.5862799685707517E-5 0:19.0 0:19.0 0:1.0 0:1.0 1551:982.0 
-1.7107129696709743E-5 0:17.0 0:17.0 0:1.0 0:1.0 1477:946.0 
-1.5200515241112312E-5 0:15.0 0:15.0 0:1.0 0:1.0 1696:1004.0 
-1.5365811865104332E-5 0:13.0 0:13.0 0:1.0 0:1.0 1486:999.0 
-1.4797661164018212E-5 0:13.0 0:13.0 0:1.0 0:1.0 1559:1018.0 
-1.67514713047437E-5 0:12.0 0:12.0 0:1.0 0:1.0 1461:957.0 
-1.7296170668633026E-5 0:11.0 0:11.0 0:1.0 0:1.0 1444:942.0 
-1.756332651993066E-5 0:10.0 0:10.0 0:1.0 0:1.0 1475:935.0 
-0.3423435913359 1:12.0 0:10.0 1:1.0 1:1.0 1443:920.0 
-2.6828882716499797E-5 3:13.0 1:11.0 1:1.0 1:1.0 1448:845.0 
-2.640063385053009E-5 11:23.0 10:22.0 1:1.0 1:1.0 1410:810.0 
-1.430715526385836E-5 7:20.0 10:22.0 1:1.0 1:1.0 1300:1001.0 
-1.798627636661283E-5 5:18.0 9:22.0 1:1.0 1:1.0 1323:967.0 
-1.9634682515093892E-5 4:16.0 8:21.0 1:1.0 1:1.0 1266:862.0 
-4.5502749903913345E-7 2:15.0 6:19.0 1:1.0 1:1.0 1227:847.0 
-2.1426094405565157E-5 -1:10.0 0:12.0 0:1.0 1:1.0 1248:757.0 
-9.311871544420764E-6 2:9.0 3:10.0 1:1.0 1:1.0 1454:1033.0 
-9.166979443536383E-6 -2:3.0 2:8.0 0:1.0 1:1.0 1467:938.0 
-1.0 -8:-3.0 0:5.0 0:0.0 1:1.0 1554:936.0 
-0.18011292809429139 -12:-7.0 -1:3.0 0:0.0 0:1.0 1536:958.0 
-2.4356018342364705E-5 -4:-9.0 -2:-7.0 0:0.0 0:0.0 1464:885.0 
-1.2830181896618348E-5 -5:-10.0 -3:-8.0 0:0.0 0:0.0 1516:895.0 
-2.4257107256432077E-5 -6:-11.0 -4:-9.0 0:0.0 0:0.0 1437:896.0 
-1.4158333812088552E-5 -1:-7.0 -1:-7.0 0:0.0 0:0.0 1292:802.0 
-2.96163426581283E-5 -1:-8.0 0:-7.0 0:0.0 0:0.0 1295:827.0 
-3.1053879043833095E-5 -1:-7.0 0:-7.0 0:0.0 0:0.0 1329:806.0 
-0.09885095263423249 0:-7.0 0:-7.0 0:0.0 0:0.0 1270:827.0 
-2.7864268838099927E-5 0:-7.0 0:-7.0 0:0.0 0:0.0 1348:790.0 
-2.9396552402816114E-5 0:-6.0 0:-6.0 0:0.0 0:0.0 1164:769.0 
-3.173337036704903E-5 0:-5.0 0:-5.0 0:0.0 0:0.0 1119:740.0 
-3.4949875052821416E-5 0:-4.0 0:-4.0 0:0.0 0:0.0 1102:705.0 
-3.6578305215444594E-5 0:-3.0 0:-3.0 0:0.0 0:0.0 1132:689.0 
-3.7442660417326096E-5 0:-3.0 0:-3.0 0:0.0 0:0.0 1177:681.0 
-4.416927678405323E-5 0:-3.0 0:-3.0 0:0.0 0:0.0 1062:627.0 
-3.406148332837388E-5 0:-3.0 0:-3.0 0:0.0 0:0.0 1049:714.0 
-3.733287973464246E-5 0:-3.0 0:-3.0 0:0.0 0:0.0 1080:682.0 
-3.7873074845215415E-5 0:-2.0 0:-2.0 0:0.0 0:0.0 1074:677.0 
-4.2511154524934366E-5 0:-2.0 0:-2.0 0:0.0 0:0.0 1041:639.0 
-4.021393658821334E-5 0:-2.0 0:-2.0 0:0.0 0:0.0 964:657.0 
-4.917836923391563E-5 0:-1.0 0:-1.0 0:0.0 0:0.0 984:594.0 
-5.175850993285838E-5 0:-1.0 0:-1.0 0:0.0 0:0.0 986:579.0 
-3.840927822176118E-5 0:0.0 0:0.0 1:0.0 1:0.0 1040:672.0 
-4.895139078924135E-5 1:0.0 0:0.0 1:1.0 1:0.0 992:608.0 
-4.4703243362613694E-5 2:1.0 0:0.0 1:1.0 1:1.0 995:606.0 
-5.424511467673597E-5 3:2.0 1:0.0 1:1.0 1:1.0 979:572.0 
-5.169912746397456E-5 4:4.0 1:1.0 1:1.0 1:1.0 972:579.0 
-5.646943709114974E-5 4:4.0 1:2.0 1:1.0 1:1.0 838:554.0 
-6.16820366968316E-5 4:5.0 2:2.0 1:1.0 1:1.0 893:530.0 
-6.407532229064689E-5 4:5.0 2:3.0 1:1.0 1:1.0 884:520.0 
-4.4273880186036186E-5 5:6.0 3:4.0 1:1.0 1:1.0 942:633.0 
-5.113850191868482E-5 4:6.0 3:5.0 1:1.0 1:1.0 958:582.0 
-5.6644734555328566E-5 4:6.0 3:5.0 1:1.0 1:1.0 874:553.0 
-3.595481248230132E-6 -15:-33.0 -12:-30.0 0:0.0 0:0.0 2013:1374.0 
-3.099889679459269E-6 -15:-35.0 -11:-30.0 0:0.0 0:0.0 2089:1292.0 
-0.02491765905148452 -15:-36.0 -10:-31.0 0:0.0 0:0.0 2008:1252.0 
-2.23366514818975E-6 -15:-37.0 -9:-31.0 0:0.0 0:0.0 1957:1225.0 
-1.8329736557982358E-5 -14:-38.0 -8:-32.0 0:0.0 0:0.0 1990:1229.0 
-1.6772873333812286E-5 -12:-37.0 -7:-33.0 0:0.0 0:0.0 2104:1256.0 
-0.0861196692915675 -9:-35.0 -6:-33.0 0:0.0 0:0.0 2049:1286.0 
-2.357717460179649E-5 -7:-34.0 -6:-33.0 0:0.0 0:0.0 1863:1259.0 
-1.870964324032159E-5 -6:-33.0 -6:-32.0 0:0.0 0:0.0 1911:1203.0 
-6.9560110302085196E-6 -5:-31.0 -6:-32.0 0:0.0 0:0.0 1840:1239.0 
-9.698727737683404E-6 -4:-30.0 -5:-31.0 0:0.0 0:0.0 1910:1183.0 
-8.15016833012671E-8 -3:-28.0 -4:-29.0 0:0.0 0:0.0 2041:1229.0 
-1.8172213828447046E-5 0:-25.0 -2:-27.0 0:0.0 0:0.0 1933:1182.0 
-2.8908785843454168E-5 2:-22.0 -1:-25.0 1:0.0 0:0.0 1763:1177.0 
-1.2102843809317069E-5 4:-18.0 0:-23.0 1:0.0 1:0.0 1809:1199.0 
-1.4128633641275708E-5 12:0.0 8:-3.0 1:1.0 1:0.0 1714:1108.0 
-1.2736327370921629E-5 9:0.0 8:-1.0 1:0.0 1:0.0 1757:1167.0 
-1.5432296142642005E-5 4:-1.0 7:0.0 1:0.0 1:1.0 1578:1060.0 
-1.8369538235159018E-5 1:-1.0 5:1.0 1:0.0 1:1.0 1584:993.0 
-2.3783070121421936E-5 -1:3.0 0:3.0 0:1.0 0:1.0 1372:819.0 
-2.1835186860349392E-5 -2:1.0 0:2.0 0:1.0 0:1.0 1337:859.0 
-0.9723144921998876 -4:-1.0 -1:1.0 0:0.0 0:1.0 1373:830.0 
-0.009082703524761692 -5:-2.0 -1:1.0 0:0.0 0:1.0 1383:816.0 
-0.9305501012670169 -6:-4.0 -2:0.0 0:0.0 0:1.0 1277:806.0 
-1.3639053116680443E-5 -10:-15.0 -4:-9.0 0:0.0 0:0.0 2330:1337.0 
-0.0037642331899502297 -20:-27.0 -8:-14.0 0:0.0 0:0.0 2122:1299.0 
-9.150999101764783E-6 -31:-39.0 -11:-20.0 0:0.0 0:0.0 2226:1320.0 
-0.005385831801099589 -53:-69.0 -22:-38.0 0:0.0 0:0.0 2055:1367.0 
-2.8630817563815488E-5 -16:-53.0 -8:-45.0 0:0.0 0:0.0 1909:1182.0 
-3.089161758926829E-5 -17:-53.0 -10:-46.0 0:0.0 0:0.0 1959:1236.0 
-1.162848060763272E-5 -16:-52.0 -12:-47.0 0:0.0 0:0.0 1941:1168.0 
-0.1424393198386186 -14:-48.0 -12:-46.0 0:0.0 0:0.0 1792:1142.0 
-1.1055051487457108E-5 -12:-46.0 -11:-44.0 0:0.0 0:0.0 1755:1118.0 
-0.012557594767565251 -8:-40.0 -9:-41.0 0:0.0 0:0.0 1745:1112.0 
-3.890064521132121E-6 -2:-32.0 -2:-33.0 0:0.0 0:0.0 1897:1139.0 
-1.6140092236230997E-5 0:-28.0 0:-28.0 0:0.0 0:0.0 1687:1042.0 
-1.789669448101226E-5 0:-25.0 0:-25.0 1:0.0 1:0.0 1647:989.0 
-1.5125838080090862E-5 0:-21.0 0:-21.0 1:0.0 1:0.0 1839:1075.0 
-1.654842557112801E-5 0:-17.0 0:-17.0 1:0.0 1:0.0 2205:1027.0 
-1.5171378336504458E-5 0:-14.0 0:-14.0 1:0.0 1:0.0 1762:1072.0 
-2.2550309858368086E-5 0:-6.0 0:-6.0 1:0.0 1:0.0 1478:878.0 
-0.0017061587731555003 0:-5.0 0:-5.0 1:0.0 1:0.0 1445:943.0 
-2.3549887652585154E-5 0:-5.0 0:-5.0 1:0.0 1:0.0 1648:859.0 
-1.8576596526311928E-5 0:-4.0 0:-4.0 1:0.0 1:0.0 1476:967.0 
-1.4490435004827487E-5 0:-5.0 0:-4.0 0:0.0 0:0.0 1783:1105.0 
-0.33165587039835204 -1:-5.0 0:-4.0 0:0.0 0:0.0 1530:911.0 
-0.9988940159304495 -2:-5.0 0:-4.0 0:0.0 0:0.0 1433:883.0 
-1.627165900839585E-5 -3:-6.0 -1:-4.0 0:0.0 0:0.0 1389:927.0 
-2.1638775168586667E-5 -4:-7.0 -1:-4.0 0:0.0 0:0.0 1482:881.0 
-3.354071633154485E-5 -2:-3.0 -1:-3.0 0:0.0 0:0.0 1381:749.0 
-3.234338098729253E-5 0:-1.0 -1:-2.0 0:0.0 0:0.0 1301:739.0 
-3.6099955775046246E-5 1:0.0 -1:-2.0 1:1.0 0:0.0 1366:708.0 
-1.4946729012857753E-6 -12:-131.0 -9:-127.0 0:0.0 0:0.0 2115:1273.0 
-3.160971065262587E-5 -12:-129.0 -6:-124.0 0:0.0 0:0.0 2076:1272.0 
-1.9932866370281748E-5 -14:-127.0 -6:-118.0 0:0.0 0:0.0 2078:1267.0 
-4.858224714649028E-5 -15:-125.0 -6:-116.0 0:0.0 0:0.0 2123:1164.0 
-1.0437312323559488E-5 -15:-121.0 -7:-114.0 0:0.0 0:0.0 1928:1219.0 
-4.6955326146155256E-5 -14:-117.0 -8:-111.0 0:0.0 0:0.0 1887:1088.0 
-4.02553478436178E-5 -11:-107.0 -10:-105.0 0:0.0 0:0.0 1866:1304.0 
-0.003196324223444649 -7:-99.0 -9:-101.0 0:0.0 0:0.0 1844:1050.0 
-6.169774038950764E-5 1:-81.0 -5:-88.0 1:0.0 0:0.0 1738:1091.0 
-0.0018682812326875392 7:-71.0 -2:-81.0 1:0.0 0:0.0 1741:1063.0 
-9.181519793403817E-6 17:-42.0 8:-51.0 1:0.0 1:0.0 1620:981.0 
-0.003803577730382231 16:-33.0 12:-37.0 1:0.0 1:0.0 1592:1006.0 
-0.11090359606637255 3:3.0 3:3.0 1:1.0 1:1.0 1364:901.0 
