svm_type c_svc
kernel_type rbf
gamma 0.1
nr_class 2
total_sv 754
rho -1.4415817718607852E-7
label 0 1
nr_sv 377 377
SV
1.0 0:10.0 0:10.0 1:1.0 1:1.0 1471:942.0 
1.0 0:9.0 0:9.0 1:1.0 1:1.0 1391:963.0 
1.0 0:9.0 0:9.0 1:1.0 1:1.0 1362:889.0 
1.0 0:8.0 0:8.0 1:1.0 1:1.0 1355:853.0 
1.0 0:8.0 0:8.0 1:1.0 1:1.0 1364:832.0 
1.0 0:7.0 0:7.0 0:1.0 0:1.0 1396:941.0 
1.0 0:6.0 0:6.0 0:1.0 0:1.0 1343:831.0 
1.0 0:6.0 0:6.0 0:1.0 0:1.0 1268:757.0 
1.0 0:5.0 0:5.0 0:1.0 0:1.0 1176:729.0 
1.0 -1:3.0 0:5.0 0:1.0 0:1.0 1349:915.0 
1.0 -1:2.0 0:4.0 0:1.0 0:1.0 1291:836.0 
1.0 -2:1.0 0:3.0 0:1.0 0:1.0 1275:866.0 
1.0 -3:0.0 -1:2.0 0:0.0 0:1.0 1270:737.0 
1.0 -5:-2.0 -1:0.0 0:0.0 0:1.0 1349:817.0 
1.0 -5:-3.0 -2:0.0 0:0.0 0:0.0 1150:765.0 
1.0 -6:-5.0 -3:-1.0 0:0.0 0:0.0 1322:777.0 
1.0 -7:-6.0 -3:-2.0 0:0.0 0:0.0 1315:844.0 
1.0 -7:-7.0 -4:-4.0 0:0.0 0:0.0 1306:864.0 
1.0 -6:-7.0 -4:-5.0 0:0.0 0:0.0 1252:772.0 
1.0 -6:-8.0 -4:-7.0 0:0.0 0:0.0 1146:663.0 
1.0 -5:-8.0 -5:-7.0 0:0.0 0:0.0 1288:841.0 
1.0 -6:-9.0 -5:-8.0 0:0.0 0:0.0 1139:770.0 
1.0 -6:-10.0 -4:-8.0 0:0.0 0:0.0 1128:714.0 
1.0 -6:-15.0 -4:-14.0 0:0.0 0:0.0 1110:675.0 
1.0 -1:-11.0 -4:-13.0 0:0.0 0:0.0 2136:1279.0 
1.0 1:-7.0 -3:-12.0 1:0.0 0:0.0 2416:1472.0 
1.0 4:-5.0 -2:-11.0 1:0.0 0:0.0 2372:1433.0 
1.0 3:-5.0 -1:-10.0 1:0.0 0:0.0 2211:1433.0 
1.0 3:-6.0 0:-9.0 1:0.0 0:0.0 2290:1293.0 
1.0 1:-7.0 0:-8.0 1:0.0 1:0.0 2373:1355.0 
1.0 0:-9.0 1:-7.0 0:0.0 1:0.0 2176:1389.0 
1.0 -2:-12.0 1:-7.0 0:0.0 1:0.0 2538:1382.0 
1.0 -3:-13.0 1:-8.0 0:0.0 1:0.0 2371:1429.0 
1.0 -3:-13.0 1:-8.0 0:0.0 1:0.0 2307:1386.0 
1.0 -7:-14.0 -4:-12.0 0:0.0 0:0.0 2199:1348.0 
1.0 -4:-11.0 -4:-12.0 0:0.0 0:0.0 2117:1309.0 
1.0 1:-2.0 0:-3.0 1:0.0 1:0.0 1859:1141.0 
1.0 2:-1.0 1:-2.0 1:0.0 1:0.0 1792:1172.0 
1.0 3:1.0 1:0.0 1:1.0 1:0.0 1724:1102.0 
1.0 3:1.0 1:0.0 1:1.0 1:1.0 1627:1038.0 
1.0 2:1.0 2:1.0 1:1.0 1:1.0 1596:1005.0 
1.0 2:1.0 2:1.0 1:1.0 1:1.0 1079:630.0 
1.0 -4:-2.0 -1:0.0 0:0.0 0:1.0 971:644.0 
1.0 -5:-4.0 -1:0.0 0:0.0 0:0.0 1487:894.0 
1.0 -7:-6.0 -2:-1.0 0:0.0 0:0.0 1523:827.0 
1.0 -7:-7.0 -2:-2.0 0:0.0 0:0.0 1378:844.0 
1.0 -8:-7.0 -3:-3.0 0:0.0 0:0.0 1415:873.0 
1.0000000001141913 -6:-7.0 -4:-4.0 0:0.0 0:0.0 1345:844.0 
1.0 -6:-6.0 -4:-5.0 0:0.0 0:0.0 1326:763.0 
1.0 -5:-7.0 -5:-6.0 0:0.0 0:0.0 1374:739.0 
1.0 -5:-7.0 -5:-7.0 0:0.0 0:0.0 1235:732.0 
1.0 0:11.0 0:11.0 1:1.0 1:1.0 1795:1275.0 
1.0 2:13.0 0:11.0 1:1.0 1:1.0 1901:1287.0 
1.0 5:15.0 1:12.0 1:1.0 1:1.0 1878:1212.0 
1.0 6:17.0 1:12.0 1:1.0 1:1.0 1775:1237.0 
1.0 6:17.0 2:12.0 1:1.0 1:1.0 1656:1140.0 
1.0 6:16.0 2:12.0 1:1.0 1:1.0 1792:1159.0 
1.0 0:8.0 3:11.0 1:1.0 1:1.0 1825:1074.0 
1.0 0:7.0 1:9.0 1:1.0 1:1.0 1678:1113.0 
1.0 0:6.0 0:6.0 0:1.0 1:1.0 1531:1071.0 
1.0 0:5.0 0:5.0 0:1.0 0:1.0 1615:1004.0 
1.0 0:5.0 0:5.0 0:1.0 0:1.0 1581:1034.0 
1.0 0:4.0 0:4.0 0:1.0 0:1.0 1640:1068.0 
1.0 -1:4.0 -1:4.0 0:1.0 0:1.0 1530:959.0 
1.0 8:30.0 8:30.0 1:1.0 1:1.0 2156:1267.0 
1.0 6:28.0 6:28.0 1:1.0 1:1.0 2053:1284.0 
1.0 3:24.0 5:27.0 1:1.0 1:1.0 2122:1293.0 
1.0 0:21.0 4:25.0 1:1.0 1:1.0 2022:1251.0 
1.0 -2:17.0 2:23.0 0:1.0 1:1.0 2055:1288.0 
1.0 -4:15.0 0:21.0 0:1.0 1:1.0 2017:1346.0 
1.0 -6:13.0 -1:18.0 0:1.0 0:1.0 2001:1251.0 
1.0 -6:12.0 -2:16.0 0:1.0 0:1.0 1989:1302.0 
1.0 -6:11.0 -4:14.0 0:1.0 0:1.0 2085:1287.0 
1.0 -6:11.0 -5:12.0 0:1.0 0:1.0 1962:1239.0 
1.0 -5:10.0 -5:10.0 0:1.0 0:1.0 2066:1194.0 
1.0 -4:10.0 -4:9.0 0:1.0 0:1.0 2037:1198.0 
1.0 -3:9.0 -4:8.0 0:1.0 0:1.0 1932:1260.0 
1.0 -3:8.0 -4:7.0 0:1.0 0:1.0 1838:1199.0 
1.0 -3:7.0 -3:6.0 0:1.0 0:1.0 2028:1267.0 
1.0 -2:5.0 -3:5.0 0:1.0 0:1.0 1937:1234.0 
1.0 -3:4.0 -2:4.0 0:1.0 0:1.0 1985:1217.0 
1.0 -3:1.0 -2:3.0 0:1.0 0:1.0 1907:1212.0 
1.0000000000000422 -4:0.0 -1:2.0 0:0.0 0:1.0 1922:1196.0 
1.0 -4:-2.0 -1:0.0 0:0.0 0:1.0 1847:1172.0 
1.0 -5:-4.0 -1:0.0 0:0.0 0:0.0 1855:1148.0 
1.0 -6:-5.0 -2:-2.0 0:0.0 0:0.0 1823:1136.0 
1.0 -6:-7.0 -3:-3.0 0:0.0 0:0.0 1868:1130.0 
1.0 -7:-8.0 -3:-5.0 0:0.0 0:0.0 1740:1148.0 
1.0 -7:-8.0 -4:-6.0 0:0.0 0:0.0 1772:1094.0 
1.0 -6:-9.0 -4:-7.0 0:0.0 0:0.0 1708:1124.0 
1.0 -7:-11.0 -5:-9.0 0:0.0 0:0.0 1746:1142.0 
1.0 -7:-12.0 -5:-10.0 0:0.0 0:0.0 1820:1080.0 
1.0 -6:-13.0 -4:-11.0 0:0.0 0:0.0 1619:1050.0 
1.0 -5:-13.0 -4:-11.0 0:0.0 0:0.0 1731:1123.0 
1.0 -3:-12.0 -3:-12.0 0:0.0 0:0.0 1592:1063.0 
1.0 -3:-12.0 -3:-12.0 0:0.0 0:0.0 1656:1006.0 
1.000000000001402 -2:-12.0 -2:-12.0 0:0.0 0:0.0 1531:986.0 
0.9999999999999809 -2:-12.0 -2:-12.0 0:0.0 0:0.0 1442:931.0 
1.0 -1:-12.0 -1:-12.0 0:0.0 0:0.0 1610:1152.0 
1.0 -1:-11.0 -1:-11.0 0:0.0 0:0.0 1742:1017.0 
1.0 -1:-11.0 -1:-11.0 0:0.0 0:0.0 1629:985.0 
1.0 0:-10.0 0:-10.0 0:0.0 0:0.0 1538:910.0 
1.0 0:-10.0 0:-10.0 0:0.0 0:0.0 1491:935.0 
1.0 0:-9.0 0:-9.0 0:0.0 0:0.0 1515:964.0 
1.4989646556962324 0:-9.0 0:-9.0 0:0.0 0:0.0 1520:960.0 
1.0 0:-8.0 0:-8.0 1:0.0 1:0.0 1439:875.0 
1.0 0:-7.0 0:-7.0 1:0.0 1:0.0 1369:904.0 
1.0 0:-7.0 0:-7.0 1:0.0 1:0.0 1393:935.0 
1.0 0:-7.0 0:-7.0 0:0.0 0:0.0 1369:984.0 
1.0 0:-7.0 0:-6.0 0:0.0 0:0.0 1293:974.0 
1.0 -1:-7.0 0:-6.0 0:0.0 0:0.0 1501:989.0 
1.0 -1:-7.0 0:-6.0 0:0.0 0:0.0 1399:911.0 
1.0 -1:-7.0 0:-6.0 0:0.0 0:0.0 1438:861.0 
1.0 -1:-7.0 0:-5.0 0:0.0 0:0.0 1434:855.0 
1.0 -1:-6.0 0:-5.0 0:0.0 0:0.0 1403:839.0 
0.999999974717344 -2:-7.0 -1:-6.0 0:0.0 0:0.0 1400:832.0 
1.0 -2:-7.0 -1:-6.0 0:0.0 0:0.0 1402:869.0 
1.0 -2:-7.0 -1:-6.0 0:0.0 0:0.0 1274:810.0 
1.0 -3:-8.0 -1:-6.0 0:0.0 0:0.0 1310:767.0 
1.0 -3:-8.0 -1:-6.0 0:0.0 0:0.0 1370:741.0 
1.0 -4:-8.0 -2:-6.0 0:0.0 0:0.0 1307:828.0 
1.0 -4:-9.0 -2:-7.0 0:0.0 0:0.0 1275:727.0 
1.0 -5:-9.0 -2:-7.0 0:0.0 0:0.0 1304:888.0 
1.0 -6:-10.0 -3:-8.0 0:0.0 0:0.0 1267:782.0 
1.0 -6:-11.0 -3:-8.0 0:0.0 0:0.0 1168:788.0 
1.0000000000000009 -7:-12.0 -4:-9.0 0:0.0 0:0.0 1145:735.0 
1.0 -8:-13.0 -4:-9.0 0:0.0 0:0.0 1207:748.0 
1.0 -7:-13.0 -4:-10.0 0:0.0 0:0.0 1183:725.0 
1.0 -7:-13.0 -4:-10.0 0:0.0 0:0.0 1182:687.0 
1.0 -6:-12.0 -4:-10.0 0:0.0 0:0.0 1203:732.0 
1.0 -5:-12.0 -4:-11.0 0:0.0 0:0.0 1180:732.0 
1.0 -4:-11.0 -4:-11.0 0:0.0 0:0.0 1123:659.0 
1.0 -5:-13.0 -5:-12.0 0:0.0 0:0.0 1178:668.0 
1.0 -8:-16.0 -5:-13.0 0:0.0 0:0.0 2935:1919.0 
1.0 -11:-20.0 -6:-14.0 0:0.0 0:0.0 2803:1818.0 
1.0 -14:-24.0 -6:-16.0 0:0.0 0:0.0 2913:1929.0 
1.0 -18:-29.0 -7:-18.0 0:0.0 0:0.0 2867:1957.0 
1.0 -19:-31.0 -8:-20.0 0:0.0 0:0.0 2840:1758.0 
1.0 -19:-32.0 -9:-22.0 0:0.0 0:0.0 2969:1888.0 
1.0 -18:-32.0 -10:-24.0 0:0.0 0:0.0 3063:1812.0 
1.0 -18:-32.0 -11:-26.0 0:0.0 0:0.0 2944:1729.0 
1.0 -17:-32.0 -12:-28.0 0:0.0 0:0.0 2794:1776.0 
1.0 -16:-32.0 -13:-29.0 0:0.0 0:0.0 2870:1918.0 
1.0 -15:-32.0 -12:-29.0 0:0.0 0:0.0 3052:1875.0 
1.0 -14:-31.0 -12:-29.0 0:0.0 0:0.0 3038:1847.0 
1.0 -12:-31.0 -11:-29.0 0:0.0 0:0.0 2953:1838.0 
1.0 -11:-30.0 -10:-29.0 0:0.0 0:0.0 2680:1627.0 
1.0 -10:-30.0 -9:-29.0 0:0.0 0:0.0 2464:1519.0 
1.0 -9:-30.0 -8:-28.0 0:0.0 0:0.0 2310:1408.0 
1.0 -9:-30.0 -7:-28.0 0:0.0 0:0.0 2317:1397.0 
1.0 -9:-31.0 -6:-28.0 0:0.0 0:0.0 2369:1458.0 
1.0 -8:-31.0 -5:-28.0 0:0.0 0:0.0 2256:1401.0 
1.0 -2:-22.0 -3:-23.0 0:0.0 0:0.0 2159:1280.0 
1.0 -1:-20.0 -1:-20.0 0:0.0 0:0.0 1821:1225.0 
1.0 0:-17.0 0:-18.0 1:0.0 0:0.0 1865:1197.0 
1.0 0:-15.0 0:-15.0 1:0.0 1:0.0 1837:1192.0 
1.0 0:-13.0 0:-13.0 1:0.0 1:0.0 1870:1125.0 
1.0 0:-11.0 0:-11.0 1:0.0 1:0.0 1737:1092.0 
1.0 0:-10.0 0:-10.0 1:0.0 1:0.0 1719:1084.0 
1.0 0:-8.0 0:-8.0 1:0.0 1:0.0 1741:1050.0 
1.0 0:-6.0 0:-6.0 1:0.0 1:0.0 1735:1055.0 
1.0 0:-5.0 0:-5.0 1:0.0 1:0.0 1615:962.0 
1.0 0:-4.0 0:-4.0 0:0.0 0:0.0 1710:1097.0 
1.0 0:-3.0 0:-3.0 1:0.0 1:0.0 1646:1012.0 
1.0 0:-3.0 0:-3.0 1:0.0 1:0.0 1627:1003.0 
1.0 0:-2.0 0:-2.0 1:0.0 1:0.0 1588:996.0 
1.0 0:-2.0 0:-2.0 1:0.0 1:0.0 1479:942.0 
1.0 0:-2.0 0:-2.0 1:0.0 1:0.0 1457:914.0 
1.0 0:-1.0 0:-1.0 1:0.0 1:0.0 1526:957.0 
1.0 0:-1.0 0:-1.0 1:0.0 1:0.0 1424:908.0 
1.0 0:-1.0 0:-1.0 1:0.0 1:0.0 1443:879.0 
1.0 0:-1.0 0:-1.0 1:0.0 1:0.0 1465:868.0 
1.0152674038833072 0:0.0 0:0.0 1:0.0 1:0.0 1433:882.0 
1.0 0:0.0 0:0.0 1:0.0 1:0.0 1330:824.0 
1.0 0:0.0 0:0.0 0:0.0 0:0.0 1550:867.0 
1.0 0:0.0 0:0.0 0:0.0 0:0.0 1417:878.0 
1.0 -1:-1.0 0:0.0 0:0.0 0:0.0 1363:886.0 
1.0 -7:-8.0 -3:-4.0 0:0.0 0:0.0 1340:843.0 
1.0 -6:-8.0 -3:-5.0 0:0.0 0:0.0 1384:742.0 
1.0 -5:-7.0 -3:-6.0 0:0.0 0:0.0 1292:762.0 
1.0 -4:-11.0 -1:-7.0 0:0.0 0:0.0 815:504.0 
1.0 -7:-14.0 -2:-8.0 0:0.0 0:0.0 1888:1228.0 
1.0 -10:-17.0 -3:-10.0 0:0.0 0:0.0 1844:1327.0 
1.0 -11:-19.0 -4:-11.0 0:0.0 0:0.0 2047:1224.0 
1.0 -10:-18.0 -4:-12.0 0:0.0 0:0.0 2049:1276.0 
1.0 -9:-17.0 -5:-13.0 0:0.0 0:0.0 1890:1234.0 
1.0 -8:-16.0 -6:-14.0 0:0.0 0:0.0 1970:1294.0 
1.0 -7:-15.0 -7:-15.0 0:0.0 0:0.0 1972:1153.0 
1.0 -6:-15.0 -7:-15.0 0:0.0 0:0.0 1987:1232.0 
1.0 -7:-15.0 -7:-15.0 0:0.0 0:0.0 2008:1340.0 
1.0 -7:-16.0 -6:-15.0 0:0.0 0:0.0 2033:1313.0 
1.0 -7:-16.0 -5:-15.0 0:0.0 0:0.0 2054:1311.0 
1.0 -7:-17.0 -4:-14.0 0:0.0 0:0.0 2169:1229.0 
1.0 -7:-17.0 -4:-14.0 0:0.0 0:0.0 2155:1282.0 
1.0 -7:-17.0 -4:-15.0 0:0.0 0:0.0 2166:1400.0 
1.0 -6:-18.0 -4:-15.0 0:0.0 0:0.0 1962:1205.0 
1.0 -6:-18.0 -4:-16.0 0:0.0 0:0.0 2086:1324.0 
1.0 -6:-19.0 -3:-16.0 0:0.0 0:0.0 1930:1226.0 
1.0 -6:-20.0 -3:-16.0 0:0.0 0:0.0 1966:1265.0 
1.0 -6:-19.0 -4:-17.0 0:0.0 0:0.0 1964:1302.0 
1.0 -6:-19.0 -4:-17.0 0:0.0 0:0.0 2027:1194.0 
1.0 -7:-20.0 -4:-17.0 0:0.0 0:0.0 1855:1204.0 
1.0 -7:-20.0 -5:-17.0 0:0.0 0:0.0 1973:1355.0 
1.0 -7:-20.0 -5:-18.0 0:0.0 0:0.0 1904:1242.0 
1.0 -7:-20.0 -5:-18.0 0:0.0 0:0.0 1950:1161.0 
1.0 -7:-20.0 -5:-18.0 0:0.0 0:0.0 1986:1170.0 
1.0 -7:-20.0 -5:-18.0 0:0.0 0:0.0 1844:1168.0 
1.0 -7:-20.0 -5:-18.0 0:0.0 0:0.0 1814:1147.0 
1.0 -7:-21.0 -4:-18.0 0:0.0 0:0.0 1817:1154.0 
1.0 -8:-22.0 -5:-19.0 0:0.0 0:0.0 1820:1135.0 
1.0 -8:-23.0 -5:-19.0 0:0.0 0:0.0 1770:1137.0 
1.0 -9:-23.0 -5:-20.0 0:0.0 0:0.0 1792:1175.0 
1.0 -8:-23.0 -5:-20.0 0:0.0 0:0.0 1787:1136.0 
1.0 -7:-22.0 -5:-20.0 0:0.0 0:0.0 1778:1188.0 
1.0 -6:-21.0 -5:-20.0 0:0.0 0:0.0 1704:1011.0 
1.0 -4:-19.0 -4:-19.0 0:0.0 0:0.0 1625:1065.0 
1.0 0:-13.0 0:-13.0 0:0.0 0:0.0 1589:1078.0 
1.0 6:5.0 2:1.0 1:1.0 1:1.0 1236:719.0 
1.0 7:15.0 3:11.0 1:1.0 1:1.0 2270:1317.0 
1.0 11:19.0 4:13.0 1:1.0 1:1.0 2203:1241.0 
1.0 13:22.0 5:14.0 1:1.0 1:1.0 2113:1340.0 
1.0 14:23.0 5:14.0 1:1.0 1:1.0 2069:1360.0 
1.0 13:22.0 6:15.0 1:1.0 1:1.0 2154:1329.0 
1.0 9:18.0 6:15.0 1:1.0 1:1.0 2146:1267.0 
1.0 6:16.0 7:16.0 1:1.0 1:1.0 2194:1389.0 
1.0 5:15.0 7:17.0 1:1.0 1:1.0 2130:1351.0 
1.0 5:15.0 7:18.0 1:1.0 1:1.0 2204:1319.0 
1.0 4:15.0 7:17.0 1:1.0 1:1.0 315:206.0 
1.0 4:14.0 4:15.0 1:1.0 1:1.0 1548:997.0 
1.0 1:12.0 2:13.0 1:1.0 1:1.0 1202:735.0 
1.0 -9:0.0 -3:5.0 0:1.0 0:1.0 438:286.0 
1.0 -11:-2.0 -5:3.0 0:0.0 0:1.0 497:313.0 
1.0 -14:-8.0 -8:-1.0 0:0.0 0:0.0 1408:957.0 
1.0 -15:-11.0 -8:-4.0 0:0.0 0:0.0 2164:1325.0 
1.0 -16:-14.0 -9:-6.0 0:0.0 0:0.0 2129:1380.0 
1.0 -18:-17.0 -10:-10.0 0:0.0 0:0.0 2043:1276.0 
1.0 -20:-22.0 -12:-13.0 0:0.0 0:0.0 1972:1281.0 
1.0 -23:-26.0 -13:-16.0 0:0.0 0:0.0 2184:1274.0 
1.0 -27:-32.0 -15:-20.0 0:0.0 0:0.0 2058:1258.0 
1.0 -31:-39.0 -16:-25.0 0:0.0 0:0.0 2052:1184.0 
1.0 -35:-47.0 -19:-30.0 0:0.0 0:0.0 1940:1286.0 
1.0 -40:-55.0 -21:-36.0 0:0.0 0:0.0 383:253.0 
1.0 -47:-68.0 -26:-47.0 0:0.0 0:0.0 521:310.0 
1.0 -18:-64.0 -21:-66.0 0:0.0 0:0.0 1625:1151.0 
1.0 0:-37.0 0:-37.0 1:0.0 1:0.0 1536:865.0 
1.0 0:-35.0 0:-35.0 1:0.0 1:0.0 1306:776.0 
1.0 0:-32.0 0:-32.0 1:0.0 1:0.0 1414:760.0 
1.0 1:-29.0 0:-30.0 1:0.0 1:0.0 1002:610.0 
1.0 2:-25.0 0:-27.0 1:0.0 1:0.0 1410:803.0 
1.0 3:-22.0 1:-25.0 1:0.0 1:0.0 1200:692.0 
1.0 5:-18.0 1:-21.0 1:0.0 1:0.0 1445:811.0 
1.0 7:-13.0 2:-18.0 1:0.0 1:0.0 1475:928.0 
1.0 9:-9.0 3:-15.0 1:0.0 1:0.0 1383:856.0 
1.0 9:-7.0 4:-12.0 1:0.0 1:0.0 1321:801.0 
1.0 8:-6.0 4:-10.0 1:0.0 1:0.0 1360:803.0 
1.0 5:-7.0 4:-8.0 1:0.0 1:0.0 1274:790.0 
1.0 1:-9.0 3:-7.0 1:0.0 1:0.0 1236:745.0 
1.0 -2:-11.0 3:-6.0 0:0.0 1:0.0 1259:816.0 
1.0000001678827741 -4:-12.0 2:-5.0 0:0.0 1:0.0 1205:741.0 
1.0 -4:-11.0 1:-4.0 0:0.0 1:0.0 1162:766.0 
1.0 -4:-9.0 0:-4.0 0:0.0 1:0.0 1191:779.0 
1.0 -4:-8.0 -1:-5.0 0:0.0 0:0.0 1175:735.0 
1.0000000000000002 -5:-7.0 -3:-5.0 0:0.0 0:0.0 1238:716.0 
1.0 -6:-8.0 -5:-6.0 0:0.0 0:0.0 1277:750.0 
1.0 -7:-8.0 -5:-6.0 0:0.0 0:0.0 1251:763.0 
1.0 -9:-9.0 -6:-6.0 0:0.0 0:0.0 1127:720.0 
1.0 -9:-9.0 -6:-5.0 0:0.0 0:0.0 434:266.0 
1.0 -9:-9.0 -6:-5.0 0:0.0 0:0.0 805:509.0 
1.0 -28:-38.0 -12:-22.0 0:0.0 0:0.0 2213:1368.0 
1.0 -42:-56.0 -17:-31.0 0:0.0 0:0.0 2148:1277.0 
1.0 -54:-72.0 -21:-39.0 0:0.0 0:0.0 2218:1277.0 
1.0 -68:-89.0 -26:-47.0 0:0.0 0:0.0 2175:1324.0 
1.0 -82:-107.0 -32:-56.0 0:0.0 0:0.0 2242:1392.0 
1.0 -76:-104.0 -37:-65.0 0:0.0 0:0.0 2135:1271.0 
1.0 -71:-104.0 -41:-74.0 0:0.0 0:0.0 2123:1296.0 
1.0 -69:-105.0 -46:-82.0 0:0.0 0:0.0 2280:1399.0 
1.0 -67:-107.0 -51:-92.0 0:0.0 0:0.0 2277:1324.0 
1.0 -63:-107.0 -56:-101.0 0:0.0 0:0.0 2153:1303.0 
1.0 -60:-108.0 -51:-99.0 0:0.0 0:0.0 2088:1310.0 
1.0 -55:-107.0 -46:-98.0 0:0.0 0:0.0 2091:1303.0 
1.0 -50:-106.0 -43:-98.0 0:0.0 0:0.0 2262:1446.0 
1.0 -43:-103.0 -38:-98.0 0:0.0 0:0.0 2062:1361.0 
1.0 -37:-100.0 -33:-97.0 0:0.0 0:0.0 2224:1359.0 
1.0 -30:-97.0 -28:-95.0 0:0.0 0:0.0 2155:1385.0 
1.0 -25:-95.0 -24:-94.0 0:0.0 0:0.0 2111:1316.0 
1.0 -19:-92.0 -18:-92.0 0:0.0 0:0.0 1983:1309.0 
1.0 -14:-91.0 -13:-90.0 0:0.0 0:0.0 1400:958.0 
1.0 -10:-90.0 -7:-88.0 0:0.0 0:0.0 2010:1226.0 
1.0 -11:-89.0 -7:-85.0 0:0.0 0:0.0 1894:1275.0 
1.0 2:-50.0 -3:-55.0 1:0.0 0:0.0 1821:1177.0 
1.0 12:-31.0 3:-40.0 1:0.0 1:0.0 1774:1149.0 
1.0 11:-26.0 6:-30.0 1:0.0 1:0.0 1702:1125.0 
1.0 10:-20.0 9:-21.0 1:0.0 1:0.0 1774:1056.0 
1.0 9:-17.0 9:-17.0 1:0.0 1:0.0 1610:1155.0 
1.0 8:-15.0 8:-15.0 1:0.0 1:0.0 1651:1063.0 
1.0 7:-12.0 7:-12.0 1:0.0 1:0.0 1594:1105.0 
1.0 6:-9.0 6:-9.0 1:0.0 1:0.0 1650:997.0 
1.0 5:-7.0 5:-7.0 1:0.0 1:0.0 1633:1012.0 
1.0 4:-4.0 4:-4.0 1:0.0 1:0.0 1611:919.0 
1.0 3:-2.0 3:-2.0 1:0.0 1:0.0 1745:1041.0 
1.0 2:0.0 2:0.0 1:1.0 1:1.0 1560:907.0 
1.0 1:0.0 1:0.0 1:1.0 1:1.0 1516:917.0 
1.0 0:1.0 0:1.0 1:1.0 1:1.0 1470:965.0 
1.0 0:1.0 0:1.0 0:1.0 0:1.0 1371:936.0 
1.0 0:2.0 0:2.0 0:1.0 0:1.0 1404:929.0 
1.0 0:2.0 0:2.0 0:1.0 0:1.0 1446:950.0 
1.0 0:2.0 0:2.0 0:1.0 0:1.0 1488:918.0 
1.0 -1:2.0 0:2.0 0:1.0 0:1.0 1400:839.0 
1.0 -1:1.0 0:2.0 0:1.0 0:1.0 1430:890.0 
1.0 -2:0.0 0:2.0 0:1.0 0:1.0 1362:911.0 
1.0 -3:0.0 -1:2.0 0:1.0 0:1.0 1318:845.0 
1.0 -3:0.0 -1:1.0 0:0.0 0:1.0 1472:881.0 
1.0253502742573843 -4:-1.0 -2:0.0 0:0.0 0:1.0 1411:836.0 
1.0 -7:-4.0 -3:0.0 0:0.0 0:0.0 1373:807.0 
1.0 -8:-7.0 -4:-2.0 0:0.0 0:0.0 1379:892.0 
1.0 -11:-10.0 -5:-3.0 0:0.0 0:0.0 1459:970.0 
1.0 -13:-13.0 -6:-5.0 0:0.0 0:0.0 1310:809.0 
1.0 -15:-15.0 -7:-7.0 0:0.0 0:0.0 1261:810.0 
1.0 -14:-15.0 -7:-8.0 0:0.0 0:0.0 1249:790.0 
1.0 -14:-16.0 -8:-10.0 0:0.0 0:0.0 1235:822.0 
1.0 -14:-16.0 -9:-12.0 0:0.0 0:0.0 1326:734.0 
1.0 36:39.0 29:33.0 1:1.0 1:1.0 2014:1338.0 
1.0 36:43.0 33:39.0 1:1.0 1:1.0 2022:1312.0 
1.0 39:48.0 31:40.0 1:1.0 1:1.0 1998:1363.0 
1.0 39:51.0 28:41.0 1:1.0 1:1.0 2029:1263.0 
1.0 38:53.0 27:42.0 1:1.0 1:1.0 2206:1404.0 
1.0 35:53.0 25:44.0 1:1.0 1:1.0 2108:1439.0 
1.0 6:42.0 0:35.0 1:1.0 1:1.0 1876:1224.0 
1.0 15:48.0 5:37.0 1:1.0 1:1.0 1760:1238.0 
1.0 15:46.0 7:38.0 1:1.0 1:1.0 1754:1168.0 
1.0 14:45.0 8:39.0 1:1.0 1:1.0 1736:1197.0 
1.0 14:44.0 10:40.0 1:1.0 1:1.0 1685:1151.0 
1.0 11:38.0 10:38.0 1:1.0 1:1.0 1723:1092.0 
1.0 7:34.0 8:34.0 1:1.0 1:1.0 1602:1044.0 
1.0 5:30.0 6:30.0 1:1.0 1:1.0 1694:1028.0 
1.0 6:16.0 2:11.0 1:1.0 1:1.0 1349:826.0 
1.0 10:20.0 3:13.0 1:1.0 1:1.0 1387:907.0 
1.0 15:25.0 5:15.0 1:1.0 1:1.0 1407:875.0 
1.0 17:28.0 6:17.0 1:1.0 1:1.0 1250:860.0 
1.0 18:29.0 7:19.0 1:1.0 1:1.0 1453:961.0 
1.0 17:29.0 8:20.0 1:1.0 1:1.0 1386:853.0 
1.0 -2:9.0 0:11.0 0:1.0 0:1.0 1207:694.0 
1.0 -3:8.0 -2:9.0 0:1.0 0:1.0 1346:834.0 
1.0 -4:7.0 -2:8.0 0:1.0 0:1.0 1286:811.0 
1.0 -3:7.0 -3:8.0 0:1.0 0:1.0 1179:799.0 
1.0 -1:9.0 -3:8.0 0:1.0 0:1.0 1173:754.0 
1.0 0:11.0 -2:8.0 1:1.0 0:1.0 1173:671.0 
1.0 2:13.0 -1:8.0 1:1.0 0:1.0 1181:752.0 
1.0 5:14.0 0:9.0 1:1.0 0:1.0 1272:753.0 
1.0 6:14.0 1:9.0 1:1.0 1:1.0 1158:709.0 
1.0 6:14.0 2:10.0 1:1.0 1:1.0 1156:770.0 
1.0 6:14.0 3:11.0 1:1.0 1:1.0 1157:669.0 
1.0 4:12.0 3:11.0 1:1.0 1:1.0 1179:763.0 
1.0 -13:-9.0 -2:1.0 0:0.0 0:1.0 1509:956.0 
1.0 -12:-8.0 -3:0.0 0:0.0 0:0.0 1554:960.0 
1.0 -8:-5.0 -4:-1.0 0:0.0 0:0.0 1430:917.0 
1.0 -4:-1.0 -5:-2.0 0:0.0 0:0.0 1486:887.0 
1.0 0:2.0 -6:-3.0 0:1.0 0:0.0 1521:968.0 
1.0 1:4.0 -6:-3.0 1:1.0 0:0.0 1535:971.0 
1.0 2:4.0 -5:-2.0 1:1.0 0:0.0 1510:972.0 
1.0 1:3.0 -3:-1.0 1:1.0 0:0.0 1537:947.0 
1.0 1:2.0 -1:0.0 1:1.0 0:0.0 1628:1016.0 
1.0 -1:0.0 0:0.0 0:0.0 1:1.0 1506:928.0 
1.0 -2:-2.0 1:0.0 0:0.0 1:1.0 1628:939.0 
1.0 -3:-5.0 1:0.0 0:0.0 1:0.0 1545:892.0 
1.0 -2:-5.0 1:-1.0 0:0.0 1:0.0 1447:976.0 
1.0 -2:-6.0 1:-2.0 0:0.0 1:0.0 1442:969.0 
1.0 -2:-7.0 0:-4.0 0:0.0 1:0.0 1640:929.0 
1.0 -2:-8.0 0:-5.0 0:0.0 0:0.0 1466:952.0 
1.0 -2:-8.0 -1:-7.0 0:0.0 0:0.0 1442:941.0 
1.0 -6:-11.0 -4:-9.0 0:0.0 0:0.0 1429:879.0 
1.0 -6:-11.0 -4:-9.0 0:0.0 0:0.0 1568:1000.0 
1.0 -5:-10.0 -4:-9.0 0:0.0 0:0.0 1407:930.0 
1.0 -4:-9.0 -4:-8.0 0:0.0 0:0.0 1466:898.0 
1.0 -3:-8.0 -3:-8.0 0:0.0 0:0.0 1396:876.0 
1.0 -2:-8.0 -2:-8.0 0:0.0 0:0.0 1349:899.0 
1.0 -1:-7.0 -1:-8.0 0:0.0 0:0.0 1343:860.0 
-0.999999974717344 -6:-8.0 -4:-6.0 0:0.0 0:0.0 1203:770.0 
-1.0000000000000009 -6:-11.0 -4:-9.0 0:0.0 0:0.0 1145:744.0 
-0.9999999999999809 -6:-12.0 -4:-10.0 0:0.0 0:0.0 1142:809.0 
-1.0 -8:-14.0 -4:-11.0 0:0.0 0:0.0 1120:715.0 
-1.0 -8:-16.0 -4:-12.0 0:0.0 0:0.0 1143:723.0 
-1.0 -9:-17.0 -4:-13.0 0:0.0 0:0.0 1156:706.0 
-1.0 -9:-18.0 -5:-13.0 0:0.0 0:0.0 1104:733.0 
-1.0 -9:-18.0 -5:-14.0 0:0.0 0:0.0 1091:674.0 
-1.0 -4:-13.0 0:-9.0 0:0.0 1:0.0 2284:1386.0 
-1.0 -5:-14.0 -1:-10.0 0:0.0 0:0.0 2294:1366.0 
-1.0 -5:-14.0 -2:-12.0 0:0.0 0:0.0 2137:1318.0 
-1.0 -6:-15.0 -4:-12.0 0:0.0 0:0.0 2236:1256.0 
-1.0 -7:-15.0 -4:-12.0 0:0.0 0:0.0 2143:1304.0 
-1.0 -6:-14.0 -5:-12.0 0:0.0 0:0.0 2091:1305.0 
-1.0 -5:-13.0 -5:-12.0 0:0.0 0:0.0 2122:1323.0 
-1.0 -3:-10.0 -4:-11.0 0:0.0 0:0.0 2050:1260.0 
-1.0 -3:-10.0 -3:-11.0 0:0.0 0:0.0 2070:1235.0 
-1.0 -2:-10.0 -2:-10.0 0:0.0 0:0.0 1970:1270.0 
-1.0 -1:-9.0 -1:-10.0 0:0.0 0:0.0 1850:1171.0 
-1.0 -1:-9.0 0:-9.0 0:0.0 0:0.0 2274:1379.0 
-1.0 0:-8.0 0:-8.0 0:0.0 0:0.0 2061:1313.0 
-1.0 0:-7.0 0:-7.0 0:0.0 0:0.0 1933:1242.0 
-1.0 0:-7.0 0:-7.0 1:0.0 1:0.0 1965:1212.0 
-1.0 0:-7.0 0:-7.0 0:0.0 0:0.0 1983:1214.0 
-1.0 0:-7.0 0:-6.0 0:0.0 0:0.0 1950:1174.0 
-1.0 0:-6.0 0:-6.0 1:0.0 1:0.0 1959:1232.0 
-1.0 0:-5.0 0:-5.0 1:0.0 1:0.0 1844:1250.0 
-1.0 1:-4.0 0:-4.0 1:0.0 1:0.0 1850:1261.0 
-1.0 1:-3.0 0:-4.0 1:0.0 1:0.0 1781:1179.0 
-1.0 1:-3.0 0:-4.0 1:0.0 1:0.0 1783:1174.0 
-1.0 1:-2.0 0:-2.0 1:0.0 1:0.0 1825:1259.0 
-1.0 3:0.0 1:-1.0 1:1.0 1:0.0 1768:1073.0 
-1.0 3:1.0 1:0.0 1:1.0 1:0.0 1651:1095.0 
-1.0 2:1.0 1:0.0 1:1.0 1:1.0 1683:1068.0 
-1.0 -5:-8.0 -5:-7.0 0:0.0 0:0.0 1284:715.0 
-1.0 -6:-9.0 -4:-7.0 0:0.0 0:0.0 1190:800.0 
-1.0000001678827741 -6:-9.0 -4:-7.0 0:0.0 0:0.0 1205:746.0 
-1.0 -6:-10.0 -4:-8.0 0:0.0 0:0.0 1212:715.0 
-1.0 -5:-10.0 -3:-8.0 0:0.0 0:0.0 1407:792.0 
-1.0 -5:-10.0 -3:-8.0 0:0.0 0:0.0 1195:720.0 
-1.0000000000000002 -4:-10.0 -3:-9.0 0:0.0 0:0.0 1238:702.0 
-1.0 -3:-10.0 -3:-9.0 0:0.0 0:0.0 1159:694.0 
-1.0 -2:-9.0 -2:-9.0 0:0.0 0:0.0 1221:985.0 
-1.0 -2:-9.0 -2:-9.0 0:0.0 0:0.0 1176:768.0 
-1.0 -1:-9.0 -1:-9.0 0:0.0 0:0.0 1206:754.0 
-1.0 -1:-8.0 -1:-9.0 0:0.0 0:0.0 1119:703.0 
-1.0 0:12.0 1:13.0 1:1.0 1:1.0 1528:990.0 
-1.0 0:12.0 0:13.0 0:1.0 1:1.0 1975:1288.0 
-1.0 0:12.0 0:13.0 0:1.0 1:1.0 1956:1262.0 
-1.0 0:12.0 0:12.0 0:1.0 0:1.0 1892:1225.0 
-1.0 0:11.0 0:11.0 0:1.0 0:1.0 1358:853.0 
-1.0 -1:10.0 0:11.0 0:1.0 0:1.0 2006:1221.0 
-1.0 -1:10.0 0:10.0 0:1.0 0:1.0 1986:1192.0 
-1.0000000000000422 0:10.0 0:10.0 0:1.0 0:1.0 1922:1185.0 
-1.0 4:13.0 2:12.0 1:1.0 1:1.0 1747:1148.0 
-1.0 2:11.0 3:12.0 1:1.0 1:1.0 1732:1087.0 
-1.0 1:10.0 3:12.0 1:1.0 1:1.0 1868:1241.0 
-1.0 0:7.0 2:10.0 1:1.0 1:1.0 1769:1040.0 
-1.0 0:7.0 0:7.0 1:1.0 1:1.0 1803:1074.0 
-1.0 -1:3.0 -1:3.0 0:1.0 0:1.0 1547:969.0 
-1.0 -1:2.0 -1:2.0 0:1.0 0:1.0 1517:1012.0 
-1.0 -1:2.0 -1:2.0 0:1.0 0:1.0 1699:1139.0 
-1.0 0:1.0 0:1.0 0:1.0 0:1.0 1570:1005.0 
-1.0 0:1.0 0:1.0 0:1.0 0:1.0 1542:972.0 
-1.0 0:1.0 0:1.0 0:1.0 0:1.0 1536:993.0 
-1.0 0:1.0 0:1.0 0:1.0 0:1.0 1520:913.0 
-1.0 0:1.0 0:1.0 1:1.0 1:1.0 1499:924.0 
-1.0 0:0.0 0:0.0 0:1.0 0:1.0 1448:921.0 
-1.0 0:0.0 0:0.0 0:1.0 0:1.0 1323:917.0 
-1.0 0:0.0 0:0.0 0:1.0 0:1.0 1424:867.0 
-1.0 0:0.0 0:0.0 0:1.0 0:1.0 1426:909.0 
-1.0 0:0.0 0:0.0 0:1.0 0:1.0 1430:831.0 
-1.0 0:1.0 0:1.0 1:1.0 1:1.0 1384:859.0 
-1.0 1:2.0 0:1.0 1:1.0 1:1.0 1480:915.0 
-1.0 3:4.0 1:2.0 1:1.0 1:1.0 1392:874.0 
-1.0 5:7.0 1:3.0 1:1.0 1:1.0 1464:855.0 
-1.0000000001141913 7:9.0 2:4.0 1:1.0 1:1.0 1381:890.0 
-1.0 9:11.0 3:5.0 1:1.0 1:1.0 1345:841.0 
-1.0 10:13.0 4:7.0 1:1.0 1:1.0 1244:798.0 
-1.0 12:15.0 5:9.0 1:1.0 1:1.0 1360:839.0 
-1.0 13:17.0 7:11.0 1:1.0 1:1.0 1335:819.0 
-1.0 15:20.0 8:13.0 1:1.0 1:1.0 1229:776.0 
-1.0 16:22.0 9:15.0 1:1.0 1:1.0 1332:764.0 
-1.0 17:24.0 10:17.0 1:1.0 1:1.0 1215:762.0 
-1.0 18:26.0 11:19.0 1:1.0 1:1.0 1178:737.0 
-1.0 17:26.0 11:20.0 1:1.0 1:1.0 1327:825.0 
-1.0 17:26.0 11:21.0 1:1.0 1:1.0 1237:741.0 
-1.0 15:26.0 11:22.0 1:1.0 1:1.0 1201:700.0 
-1.0 14:25.0 11:23.0 1:1.0 1:1.0 1194:760.0 
-1.0 12:24.0 10:23.0 1:1.0 1:1.0 1137:745.0 
-1.0 10:24.0 9:23.0 1:1.0 1:1.0 1356:697.0 
-1.0 8:23.0 8:23.0 1:1.0 1:1.0 1302:785.0 
-1.0 7:23.0 7:23.0 1:1.0 1:1.0 1285:683.0 
-1.0 6:23.0 6:22.0 1:1.0 1:1.0 1245:678.0 
-1.0 6:23.0 5:22.0 1:1.0 1:1.0 1196:694.0 
-1.0 6:25.0 4:23.0 1:1.0 1:1.0 1115:641.0 
-1.0 -7:-10.0 -5:-8.0 0:0.0 0:0.0 1817:1180.0 
-1.0 -7:-12.0 -5:-10.0 0:0.0 0:0.0 1651:1048.0 
-1.0 -7:-13.0 -5:-11.0 0:0.0 0:0.0 1703:1072.0 
-1.0 -4:-12.0 -3:-12.0 0:0.0 0:0.0 1711:1072.0 
-1.0 -8:-32.0 -4:-28.0 0:0.0 0:0.0 2148:1386.0 
-1.0 -8:-31.0 -4:-28.0 0:0.0 0:0.0 2173:1257.0 
-1.0 -8:-31.0 -4:-28.0 0:0.0 0:0.0 2261:1426.0 
-1.0 -7:-31.0 -4:-28.0 0:0.0 0:0.0 2176:1392.0 
-1.0 -7:-30.0 -5:-28.0 0:0.0 0:0.0 2216:1374.0 
-1.0 -6:-29.0 -5:-27.0 0:0.0 0:0.0 2292:1406.0 
-1.0 -6:-28.0 -4:-27.0 0:0.0 0:0.0 2176:1336.0 
-1.0 -5:-27.0 -4:-26.0 0:0.0 0:0.0 1495:950.0 
-1.0 -4:-25.0 -4:-25.0 0:0.0 0:0.0 2146:1299.0 
-1.0 -3:-24.0 -3:-24.0 0:0.0 0:0.0 2566:1458.0 
-1.0 -1:-21.0 -2:-22.0 0:0.0 0:0.0 1736:1095.0 
-1.0 0:-18.0 -1:-19.0 0:0.0 0:0.0 702:459.0 
-1.0 0:-16.0 0:-17.0 1:0.0 0:0.0 1854:1199.0 
-1.0 0:-14.0 0:-14.0 1:0.0 1:0.0 2105:1230.0 
-1.0 0:-12.0 0:-12.0 1:0.0 1:0.0 1875:1047.0 
-1.0 0:-10.0 0:-10.0 1:0.0 1:0.0 1806:1140.0 
-1.0 0:-9.0 0:-9.0 1:0.0 1:0.0 1751:1058.0 
-1.0 0:-7.0 0:-7.0 1:0.0 1:0.0 1652:1015.0 
-1.0 0:-5.0 0:-5.0 1:0.0 1:0.0 1635:1012.0 
-1.0 -2:-3.0 0:-1.0 0:0.0 0:0.0 1338:867.0 
-1.0253502742573843 -4:-5.0 -1:-2.0 0:0.0 0:0.0 1411:832.0 
-1.0 -6:-7.0 -2:-3.0 0:0.0 0:0.0 1317:809.0 
-1.0 -7:-8.0 -2:-4.0 0:0.0 0:0.0 1298:816.0 
-1.0 -8:-23.0 -5:-20.0 0:0.0 0:0.0 1729:1106.0 
-1.0 -7:-22.0 -5:-20.0 0:0.0 0:0.0 1837:1221.0 
-1.0 -6:-22.0 -5:-20.0 0:0.0 0:0.0 1744:1144.0 
-1.0 -5:-20.0 -4:-19.0 0:0.0 0:0.0 1729:1068.0 
-1.0 -3:-18.0 -3:-18.0 0:0.0 0:0.0 1774:1024.0 
-1.000000000001402 -3:-17.0 -3:-17.0 0:0.0 0:0.0 1583:1043.0 
-1.0 -2:-16.0 -2:-17.0 0:0.0 0:0.0 1531:1001.0 
-1.0 -2:-16.0 -2:-16.0 0:0.0 0:0.0 1529:969.0 
-1.0 -1:-15.0 -1:-15.0 0:0.0 0:0.0 1569:1103.0 
-1.0 -1:-14.0 -1:-14.0 0:0.0 0:0.0 1505:1023.0 
-1.0 0:-12.0 0:-12.0 0:0.0 0:0.0 1524:1010.0 
-1.0 0:-11.0 0:-11.0 0:0.0 0:0.0 1535:992.0 
-1.0 0:-11.0 0:-11.0 0:0.0 0:0.0 1506:954.0 
-1.4992954206974924 0:-10.0 0:-10.0 0:0.0 0:0.0 1520:957.0 
-1.0 0:-10.0 0:-10.0 0:0.0 0:0.0 1446:906.0 
-1.0 0:-9.0 0:-9.0 1:0.0 1:0.0 1421:942.0 
-1.0 0:-8.0 0:-8.0 1:0.0 1:0.0 1447:910.0 
-1.0 0:-7.0 0:-8.0 1:0.0 1:0.0 1452:879.0 
-1.0 0:-6.0 0:-7.0 1:0.0 1:0.0 1235:783.0 
-1.0 1:-6.0 0:-6.0 1:0.0 1:0.0 748:494.0 
-1.0 0:-5.0 0:-6.0 1:0.0 1:0.0 1368:716.0 
-1.0 0:-5.0 0:-5.0 1:0.0 1:0.0 1346:874.0 
-1.0 1:-4.0 0:-4.0 1:0.0 1:0.0 1402:808.0 
-1.0 1:-2.0 1:-3.0 1:0.0 1:0.0 1341:861.0 
-1.0 2:-1.0 1:-2.0 1:0.0 1:0.0 1230:734.0 
-1.0 3:0.0 1:-1.0 1:1.0 1:0.0 1186:761.0 
-1.0 6:3.0 2:0.0 1:1.0 1:0.0 1244:738.0 
-1.0 6:4.0 2:0.0 1:1.0 1:1.0 1269:792.0 
-1.0 7:6.0 3:3.0 1:1.0 1:1.0 1235:760.0 
-1.0 6:7.0 3:4.0 1:1.0 1:1.0 1269:743.0 
-1.0 5:6.0 4:5.0 1:1.0 1:1.0 1209:704.0 
-1.0 5:6.0 4:5.0 1:1.0 1:1.0 1188:736.0 
-1.0 4:6.0 4:6.0 1:1.0 1:1.0 1258:807.0 
-1.0 3:6.0 4:6.0 1:1.0 1:1.0 1232:765.0 
-1.0 2:6.0 3:6.0 1:1.0 1:1.0 1200:672.0 
-1.0 2:6.0 2:6.0 1:1.0 1:1.0 1140:741.0 
-1.0 2:6.0 2:6.0 1:1.0 1:1.0 1095:709.0 
-1.0 3:8.0 2:7.0 1:1.0 1:1.0 1058:706.0 
-1.0 3:8.0 1:7.0 1:1.0 1:1.0 1145:705.0 
-1.0 2:8.0 1:7.0 1:1.0 1:1.0 1177:656.0 
-1.0 2:8.0 1:7.0 1:1.0 1:1.0 1105:658.0 
-1.0 2:9.0 1:7.0 1:1.0 1:1.0 1080:647.0 
-1.0 4:10.0 2:8.0 1:1.0 1:1.0 1154:673.0 
-1.0 -44:-77.0 -32:-66.0 0:0.0 0:0.0 1291:837.0 
-1.0 -40:-76.0 -31:-68.0 0:0.0 0:0.0 637:410.0 
-1.0 -35:-74.0 -30:-69.0 0:0.0 0:0.0 302:207.0 
-1.0 -24:-67.0 -24:-68.0 0:0.0 0:0.0 1285:780.0 
-1.0 -14:-62.0 -17:-65.0 0:0.0 0:0.0 1571:1033.0 
-1.0 -1:-53.0 -1:-53.0 0:0.0 0:0.0 1609:972.0 
-1.0 0:-51.0 0:-51.0 1:0.0 1:0.0 1505:991.0 
-1.0 0:-49.0 0:-49.0 1:0.0 1:0.0 1577:950.0 
-1.0 1:-48.0 1:-48.0 1:0.0 1:0.0 1628:1027.0 
-1.0 1:-45.0 1:-45.0 1:0.0 1:0.0 1426:935.0 
-1.0 1:-43.0 1:-43.0 1:0.0 1:0.0 1539:953.0 
-1.0 1:-41.0 1:-41.0 1:0.0 1:0.0 1456:906.0 
-1.0 0:-39.0 0:-39.0 1:0.0 1:0.0 1519:957.0 
-1.0 -12:-89.0 -7:-84.0 0:0.0 0:0.0 1997:1267.0 
-1.0 -14:-90.0 -7:-83.0 0:0.0 0:0.0 1952:1197.0 
-1.0 -15:-90.0 -7:-83.0 0:0.0 0:0.0 1994:1286.0 
-1.0 -16:-90.0 -8:-82.0 0:0.0 0:0.0 2032:1320.0 
-1.0 -17:-89.0 -8:-81.0 0:0.0 0:0.0 2036:1293.0 
-1.0 -16:-87.0 -9:-80.0 0:0.0 0:0.0 1956:1290.0 
-1.0 -16:-84.0 -10:-78.0 0:0.0 0:0.0 1912:1307.0 
-1.0 -15:-81.0 -10:-77.0 0:0.0 0:0.0 1828:1222.0 
-1.0 -13:-77.0 -10:-75.0 0:0.0 0:0.0 1823:1220.0 
-1.0 -12:-73.0 -11:-72.0 0:0.0 0:0.0 1855:1220.0 
-1.0 -9:-69.0 -10:-69.0 0:0.0 0:0.0 1834:1218.0 
-1.0 -6:-64.0 -8:-66.0 0:0.0 0:0.0 1853:1160.0 
-1.0 -2:-57.0 -6:-61.0 0:0.0 0:0.0 1799:1413.0 
-1.0 6:-43.0 -1:-51.0 1:0.0 0:0.0 1772:1178.0 
-1.0 9:-37.0 0:-45.0 1:0.0 1:0.0 1770:1225.0 
-1.0 12:-28.0 5:-35.0 1:0.0 1:0.0 1697:1074.0 
-1.0 11:-23.0 8:-26.0 1:0.0 1:0.0 1923:1029.0 
-1.0 -13:-17.0 -10:-13.0 0:0.0 0:0.0 1261:755.0 
-1.0 -12:-16.0 -10:-14.0 0:0.0 0:0.0 1217:787.0 
-1.0 -11:-16.0 -9:-15.0 0:0.0 0:0.0 1399:767.0 
-1.0 -9:-15.0 -8:-15.0 0:0.0 0:0.0 1244:750.0 
-1.0 -7:-15.0 -7:-15.0 0:0.0 0:0.0 1206:662.0 
-1.0 -6:-16.0 -7:-16.0 0:0.0 0:0.0 1250:740.0 
-1.0 -6:-16.0 -6:-16.0 0:0.0 0:0.0 1151:729.0 
-1.0 -7:-19.0 -5:-17.0 0:0.0 0:0.0 1167:679.0 
-1.0 -8:-21.0 -5:-18.0 0:0.0 0:0.0 1225:735.0 
-1.0 -8:-23.0 -4:-18.0 0:0.0 0:0.0 1112:689.0 
-1.0 -9:-25.0 -4:-19.0 0:0.0 0:0.0 1120:617.0 
-1.0 -9:-26.0 -4:-20.0 0:0.0 0:0.0 1142:674.0 
-1.0 -6:-22.0 -3:-19.0 0:0.0 0:0.0 1072:744.0 
-1.0 5:-8.0 0:-14.0 1:0.0 0:0.0 872:533.0 
-1.0 17:5.0 2:-8.0 1:1.0 1:0.0 2090:1332.0 
-1.0 28:18.0 6:-3.0 1:1.0 1:0.0 2055:1300.0 
-1.0 38:30.0 9:1.0 1:1.0 1:1.0 2120:1298.0 
-1.0 45:39.0 13:7.0 1:1.0 1:1.0 2243:1328.0 
-1.0 40:36.0 16:12.0 1:1.0 1:1.0 2193:1565.0 
-1.0 36:35.0 20:19.0 1:1.0 1:1.0 2235:1423.0 
-1.0 35:36.0 25:26.0 1:1.0 1:1.0 2030:1315.0 
-1.0 30:52.0 23:45.0 1:1.0 1:1.0 2093:1273.0 
-1.0 25:50.0 21:47.0 1:1.0 1:1.0 2162:1366.0 
-1.0 20:48.0 19:47.0 1:1.0 1:1.0 2164:1386.0 
-1.0 14:46.0 15:47.0 1:1.0 1:1.0 2005:1310.0 
-1.0 8:43.0 11:46.0 1:1.0 1:1.0 2043:1451.0 
-1.0 4:41.0 7:44.0 1:1.0 1:1.0 2116:1420.0 
-1.0 2:39.0 5:42.0 1:1.0 1:1.0 2021:1370.0 
-1.0 1:37.0 4:41.0 1:1.0 1:1.0 2064:1214.0 
-1.0 0:35.0 2:39.0 0:1.0 1:1.0 2048:1265.0 
-1.0 0:35.0 1:37.0 0:1.0 1:1.0 1969:1383.0 
-1.0 -1:34.0 0:35.0 0:1.0 0:1.0 2137:1278.0 
-1.0 -1:35.0 -1:34.0 0:1.0 0:1.0 1939:1306.0 
-1.0 0:35.0 -2:34.0 0:1.0 0:1.0 2011:1286.0 
-1.0 3:39.0 -1:34.0 1:1.0 0:1.0 1975:1253.0 
-1.0 10:45.0 1:36.0 1:1.0 1:1.0 1880:1110.0 
-1.0 13:46.0 3:37.0 1:1.0 1:1.0 1946:1179.0 
-1.0 14:43.0 11:40.0 1:1.0 1:1.0 1720:1180.0 
-1.0 12:41.0 11:39.0 1:1.0 1:1.0 1836:1064.0 
-1.0 10:36.0 9:36.0 1:1.0 1:1.0 1733:1080.0 
-1.0 6:32.0 7:32.0 1:1.0 1:1.0 1930:1104.0 
-1.0 4:28.0 4:28.0 1:1.0 1:1.0 1768:1037.0 
-1.0 2:26.0 3:26.0 1:1.0 1:1.0 1586:1010.0 
-1.0 1:24.0 1:24.0 1:1.0 1:1.0 1591:1054.0 
-1.0 0:22.0 0:22.0 1:1.0 1:1.0 1619:1017.0 
-1.0 0:19.0 0:19.0 0:1.0 0:1.0 1551:982.0 
-1.0 0:17.0 0:17.0 0:1.0 0:1.0 1477:946.0 
-1.0 0:15.0 0:15.0 0:1.0 0:1.0 1696:1004.0 
-1.0 0:13.0 0:13.0 0:1.0 0:1.0 1486:999.0 
-1.0 0:13.0 0:13.0 0:1.0 0:1.0 1559:1018.0 
-1.0 0:12.0 0:12.0 0:1.0 0:1.0 1461:957.0 
-1.0 0:11.0 0:11.0 0:1.0 0:1.0 1444:942.0 
-1.0 0:10.0 0:10.0 0:1.0 0:1.0 1475:935.0 
-1.0 1:12.0 0:10.0 1:1.0 1:1.0 1443:920.0 
-1.0 3:13.0 1:11.0 1:1.0 1:1.0 1448:845.0 
-1.0 15:27.0 9:21.0 1:1.0 1:1.0 1356:826.0 
-1.0 11:23.0 10:22.0 1:1.0 1:1.0 1410:810.0 
-1.0 7:20.0 10:22.0 1:1.0 1:1.0 1300:1001.0 
-1.0 5:18.0 9:22.0 1:1.0 1:1.0 1323:967.0 
-1.0 4:16.0 8:21.0 1:1.0 1:1.0 1266:862.0 
-1.0 2:15.0 6:19.0 1:1.0 1:1.0 1227:847.0 
-1.0 1:14.0 4:16.0 1:1.0 1:1.0 1335:772.0 
-1.0 0:12.0 2:14.0 1:1.0 1:1.0 1237:836.0 
-1.0 -1:10.0 0:12.0 0:1.0 1:1.0 1248:757.0 
-1.0 2:9.0 3:10.0 1:1.0 1:1.0 1454:1033.0 
-1.0 -2:3.0 2:8.0 0:1.0 1:1.0 1467:938.0 
-1.0 -8:-3.0 0:5.0 0:0.0 1:1.0 1554:936.0 
-1.0 -12:-7.0 -1:3.0 0:0.0 0:1.0 1536:958.0 
-1.0 -4:-9.0 -2:-7.0 0:0.0 0:0.0 1464:885.0 
-1.0 -5:-10.0 -3:-8.0 0:0.0 0:0.0 1516:895.0 
-1.0 -6:-11.0 -4:-9.0 0:0.0 0:0.0 1437:896.0 
-1.0 -1:-7.0 -2:-8.0 0:0.0 0:0.0 1384:894.0 
-1.0 -1:-7.0 -1:-7.0 0:0.0 0:0.0 1292:802.0 
-1.0 -1:-8.0 0:-7.0 0:0.0 0:0.0 1295:827.0 
-1.0 -1:-7.0 0:-7.0 0:0.0 0:0.0 1329:806.0 
-1.0 0:-7.0 0:-7.0 0:0.0 0:0.0 1270:827.0 
-1.0 0:-7.0 0:-7.0 0:0.0 0:0.0 1348:790.0 
-1.0 0:-6.0 0:-6.0 0:0.0 0:0.0 1164:769.0 
-1.0 0:-5.0 0:-5.0 0:0.0 0:0.0 1119:740.0 
-1.0 0:-4.0 0:-4.0 0:0.0 0:0.0 1102:705.0 
-1.0 0:-3.0 0:-3.0 0:0.0 0:0.0 1132:689.0 
-1.0 0:-3.0 0:-3.0 0:0.0 0:0.0 1177:681.0 
-1.0 0:-3.0 0:-3.0 0:0.0 0:0.0 1062:627.0 
-1.0 0:-3.0 0:-3.0 0:0.0 0:0.0 1049:714.0 
-1.0 0:-3.0 0:-3.0 0:0.0 0:0.0 1080:682.0 
-0.9994228700829203 0:-3.0 0:-3.0 0:0.0 0:0.0 1041:658.0 
-1.0 0:-3.0 0:-3.0 0:0.0 0:0.0 1062:648.0 
-1.0 0:-2.0 0:-2.0 0:0.0 0:0.0 1074:677.0 
-1.0 0:-2.0 0:-2.0 0:0.0 0:0.0 1041:639.0 
-1.0 0:-2.0 0:-2.0 0:0.0 0:0.0 964:657.0 
-1.0 0:-1.0 0:-1.0 0:0.0 0:0.0 984:594.0 
-1.0 0:-1.0 0:-1.0 0:0.0 0:0.0 986:579.0 
-1.0 0:0.0 0:0.0 1:0.0 1:0.0 1040:672.0 
-1.0 1:0.0 0:0.0 1:1.0 1:0.0 992:608.0 
-1.0 2:1.0 0:0.0 1:1.0 1:1.0 995:606.0 
-1.0 3:2.0 1:0.0 1:1.0 1:1.0 979:572.0 
-1.0 4:4.0 1:1.0 1:1.0 1:1.0 972:579.0 
-1.0 4:4.0 1:2.0 1:1.0 1:1.0 838:554.0 
-1.0 4:5.0 2:2.0 1:1.0 1:1.0 893:530.0 
-1.0 4:5.0 2:3.0 1:1.0 1:1.0 884:520.0 
-1.0 5:6.0 3:4.0 1:1.0 1:1.0 942:633.0 
-1.0 4:6.0 3:5.0 1:1.0 1:1.0 958:582.0 
-1.0 4:6.0 3:5.0 1:1.0 1:1.0 874:553.0 
-1.0 -15:-31.0 -13:-29.0 0:0.0 0:0.0 2150:1469.0 
-1.0 -15:-33.0 -12:-30.0 0:0.0 0:0.0 2013:1374.0 
-1.0 -15:-35.0 -11:-30.0 0:0.0 0:0.0 2089:1292.0 
-1.0 -15:-36.0 -10:-31.0 0:0.0 0:0.0 2008:1252.0 
-1.0 -15:-37.0 -9:-31.0 0:0.0 0:0.0 1957:1225.0 
-1.0 -14:-38.0 -8:-32.0 0:0.0 0:0.0 1990:1229.0 
-1.0 -12:-37.0 -7:-33.0 0:0.0 0:0.0 2104:1256.0 
-1.0 -9:-35.0 -6:-33.0 0:0.0 0:0.0 2049:1286.0 
-1.0 -7:-34.0 -6:-33.0 0:0.0 0:0.0 1863:1259.0 
-1.0 -6:-33.0 -6:-32.0 0:0.0 0:0.0 1911:1203.0 
-1.0 -5:-31.0 -6:-32.0 0:0.0 0:0.0 1840:1239.0 
-1.0 -4:-30.0 -5:-31.0 0:0.0 0:0.0 1910:1183.0 
-1.0 -3:-28.0 -4:-29.0 0:0.0 0:0.0 2041:1229.0 
-1.0 0:-25.0 -2:-27.0 0:0.0 0:0.0 1933:1182.0 
-1.0 2:-22.0 -1:-25.0 1:0.0 0:0.0 1763:1177.0 
-1.0 4:-18.0 0:-23.0 1:0.0 1:0.0 1809:1199.0 
-1.0 6:-15.0 1:-21.0 1:0.0 1:0.0 1875:1243.0 
-1.0 12:0.0 8:-3.0 1:1.0 1:0.0 1714:1108.0 
-1.0 9:0.0 8:-1.0 1:0.0 1:0.0 1757:1167.0 
-1.0 4:-1.0 7:0.0 1:0.0 1:1.0 1578:1060.0 
-1.0 1:-1.0 5:1.0 1:0.0 1:1.0 1584:993.0 
-1.0 -1:3.0 0:3.0 0:1.0 0:1.0 1372:819.0 
-1.0 -2:1.0 0:2.0 0:1.0 0:1.0 1337:859.0 
-1.0 -4:-1.0 -1:1.0 0:0.0 0:1.0 1373:830.0 
-1.0 -5:-2.0 -1:1.0 0:0.0 0:1.0 1383:816.0 
-1.0 -6:-4.0 -2:0.0 0:0.0 0:1.0 1277:806.0 
-1.0 -10:-15.0 -4:-9.0 0:0.0 0:0.0 2330:1337.0 
-1.0 -20:-27.0 -8:-14.0 0:0.0 0:0.0 2122:1299.0 
-1.0 -31:-39.0 -11:-20.0 0:0.0 0:0.0 2226:1320.0 
-1.0 -43:-55.0 -15:-26.0 0:0.0 0:0.0 2162:1401.0 
-1.0 -56:-69.0 -19:-32.0 0:0.0 0:0.0 2093:1350.0 
-1.0 -53:-69.0 -22:-38.0 0:0.0 0:0.0 2055:1367.0 
-1.0 -16:-53.0 -8:-45.0 0:0.0 0:0.0 1909:1182.0 
-1.0 -17:-53.0 -10:-46.0 0:0.0 0:0.0 1959:1236.0 
-1.0 -16:-52.0 -12:-47.0 0:0.0 0:0.0 1941:1168.0 
-1.0 -14:-48.0 -12:-46.0 0:0.0 0:0.0 1792:1142.0 
-1.0 -12:-46.0 -11:-44.0 0:0.0 0:0.0 1755:1118.0 
-1.0 -8:-40.0 -9:-41.0 0:0.0 0:0.0 1745:1112.0 
-1.0 -5:-36.0 -6:-37.0 0:0.0 0:0.0 1745:1059.0 
-1.0 -2:-32.0 -2:-33.0 0:0.0 0:0.0 1897:1139.0 
-1.0 0:-28.0 0:-28.0 0:0.0 0:0.0 1687:1042.0 
-1.0 0:-25.0 0:-25.0 1:0.0 1:0.0 1647:989.0 
-1.0 0:-21.0 0:-21.0 1:0.0 1:0.0 1839:1075.0 
-1.0 0:-17.0 0:-17.0 1:0.0 1:0.0 2205:1027.0 
-1.0 0:-14.0 0:-14.0 1:0.0 1:0.0 1762:1072.0 
-1.0 0:-6.0 0:-6.0 1:0.0 1:0.0 1478:878.0 
-1.0 0:-5.0 0:-5.0 1:0.0 1:0.0 1445:943.0 
-1.0 0:-5.0 0:-5.0 1:0.0 1:0.0 1648:859.0 
-1.0 0:-4.0 0:-4.0 1:0.0 1:0.0 1476:967.0 
-1.0 0:-5.0 0:-4.0 0:0.0 0:0.0 1783:1105.0 
-1.0003334377061568 -1:-5.0 0:-4.0 0:0.0 0:0.0 1530:911.0 
-1.0151803310929703 -2:-5.0 0:-4.0 0:0.0 0:0.0 1433:883.0 
-1.0 -3:-6.0 -1:-4.0 0:0.0 0:0.0 1389:927.0 
-1.0 -4:-7.0 -1:-4.0 0:0.0 0:0.0 1482:881.0 
-1.0 -3:-6.0 -1:-3.0 0:0.0 0:0.0 1332:810.0 
-1.0 -3:-5.0 -1:-3.0 0:0.0 0:0.0 1335:818.0 
-1.0 -2:-3.0 -1:-3.0 0:0.0 0:0.0 1381:749.0 
-1.0 0:-1.0 -1:-2.0 0:0.0 0:0.0 1301:739.0 
-1.0 1:0.0 -1:-2.0 1:1.0 0:0.0 1366:708.0 
-1.0 -15:-133.0 -13:-131.0 0:0.0 0:0.0 2120:1246.0 
-1.0 -12:-131.0 -9:-127.0 0:0.0 0:0.0 2115:1273.0 
-1.0 -12:-129.0 -6:-124.0 0:0.0 0:0.0 2076:1272.0 
-1.0 -12:-128.0 -5:-122.0 0:0.0 0:0.0 2062:1184.0 
-1.0 -13:-128.0 -5:-120.0 0:0.0 0:0.0 2272:1339.0 
-1.0 -14:-127.0 -6:-118.0 0:0.0 0:0.0 2078:1267.0 
-1.0 -15:-125.0 -6:-116.0 0:0.0 0:0.0 2123:1164.0 
-1.0 -15:-121.0 -7:-114.0 0:0.0 0:0.0 1928:1219.0 
-1.0 -14:-117.0 -8:-111.0 0:0.0 0:0.0 1887:1088.0 
-1.0 -13:-113.0 -9:-109.0 0:0.0 0:0.0 1959:1148.0 
-1.0 -11:-107.0 -10:-105.0 0:0.0 0:0.0 1866:1304.0 
-1.0 -7:-99.0 -9:-101.0 0:0.0 0:0.0 1844:1050.0 
-1.0 -3:-90.0 -8:-95.0 0:0.0 0:0.0 1767:1056.0 
-1.0 1:-81.0 -5:-88.0 1:0.0 0:0.0 1738:1091.0 
-1.0 7:-71.0 -2:-81.0 1:0.0 0:0.0 1741:1063.0 
-1.0 14:-55.0 3:-66.0 1:0.0 1:0.0 1783:1077.0 
-1.0 17:-42.0 8:-51.0 1:0.0 1:0.0 1620:981.0 
-1.0 16:-33.0 12:-37.0 1:0.0 1:0.0 1592:1006.0 
-1.0 3:3.0 3:3.0 1:1.0 1:1.0 1364:901.0 
